[{"Type":0,"InputCount":784,"OutputCount":3456,"InputW":28,"InputH":28,"InputChannels":1,"KernelW":5,"KernelH":5,"OutputW":24,"OutputH":24,"FilterCount":6,"Padding":0,"Weights":{"Dimensions":[5,5,1,6],"Values":[-0.22930991745801146,0.30992197810250416,0.11561638316855762,0.66638251315485053,0.55496043528531458,0.59309680165315959,-0.22748192870137304,0.31881903860522787,-0.29805164650393035,0.31701153654463671,-0.56620389886218814,-0.11927989229383082,-0.27444158550878039,0.10482021683600327,0.37406041427615122,-0.12807413829921735,-0.4476393434039615,-0.32446317963792465,-0.64719629671331758,-0.018422158860560291,0.32493990255839156,-0.0077277036562381175,0.032539867685591285,-0.35600491358576547,-0.080845477626235493,-0.16351190052114972,-0.021024582894234898,-0.1346418948888537,-0.35629577478619534,-0.62832657704963735,0.30686008443653051,-0.023902564000007561,0.44182240282314095,-0.24948019872275884,-0.62054629493356384,-0.054148871151486047,0.12759732888163794,0.53809311687251649,0.062144299855373314,-0.5875194968811368,0.0477767314019348,-0.15250146407762724,0.3359275699814539,-0.42076730037774657,-0.29661658011067016,0.02022975240562087,0.25735742063709632,0.30429348412035973,-0.034217855281361724,0.42895507845543823,-0.10358439756693291,0.18507469701192666,0.049598307952169712,0.081764269295776265,0.47354166207323833,0.061711220127495241,0.53370521156634665,-0.21295486093412663,0.11255670425090021,0.26089327998233525,0.080649534727045,0.43724594435136221,0.1984415880933601,-0.32068216537388,0.46967820487151934,0.081990086582595545,0.20912026220885865,0.6025820452444216,0.0073387995915220085,-0.092933563344062456,-0.55477951640685663,-0.12152677879684824,0.34384162302184196,0.40529640077231976,-0.465350351093353,0.23810166367436181,0.36989196000919333,0.021897611988703325,0.35484925811492152,-0.54555789761184792,0.15093585562044992,0.14761990361681485,0.15141382762037633,-0.504003654576916,-0.16361429029946653,0.57553497775049789,0.41600434238503814,-0.28177779001515646,-0.39449562567248042,-0.10133288526493088,0.0348357520268246,-0.036638266055592117,-0.13992754388887144,0.17953314897615544,-0.19746200519569895,0.174469029857355,0.1581032262454101,0.063346883587841712,-0.44831422087083828,0.07140594647690858,0.429308410544955,0.2708202376920667,-0.16708527588551309,-0.45428476490917291,0.30332736133104071,-0.1217474396995534,0.60771848057010325,0.12846113699347039,-0.10589071086196315,-0.22897481159336883,0.56204200828277384,0.18431283606786966,-0.28984987953363517,-0.12755991390467097,-0.42112095617288026,-0.21737167776256816,-0.1593679263075731,-0.143655918864367,-0.0020855743639619411,0.36246486218840057,0.48296876638696307,-0.002002037608844339,0.16723018192011832,0.32649089144381105,-0.53496197986613714,0.27961399614401722,0.55074842931760859,0.538142146279439,0.13381614574144909,0.080368672454217915,0.543598128724602,-0.34022487690425657,-0.27952697741889287,-0.33329826298010357,-0.444242733173581,0.35253062426940024,-0.35627851812430811,-0.17026526747620255,-0.44554049989977629,-0.33189751899875836,-0.48101426366321415,-0.29423618193646406,0.21000991794699389,0.40516961046940714,0.17833463038780684,0.38649997764401384,-0.29748768207926207,0.47937413122021044,0.31034710646324093,-0.083412026036774334]},"Bias":{"Dimensions":[1,3456],"Values":[-0.00031763295633327395,-0.00034013606140337435,0.0049684053127062745,-0.0001614749657729378,-0.00046594691149901983,-0.0038382851191322426,-0.00068220425150974874,-0.0050467729048725568,0.0064317424072982228,-0.001566542192462267,0.018746756807957517,0.0209957868607173,0.019886492860147261,0.016660017539982867,0.022887042274001103,0.033873831703173124,0.0,0.0,0.0,0.0,0.0,0.0,0.0,0.0,-0.0016723267025244529,0.0055869751884556678,-0.004216587045658947,-0.00022812190360299058,-0.009276518395019093,-0.0052061375090742181,-0.00045937502114962392,0.040468952844772595,-0.0043841950944347279,0.018239837163747948,0.053648290957322764,0.057054247006496681,0.0648799019196463,0.070545401957438247,0.0586298603324843,0.043738208682842408,0.0,0.0,0.0,0.0,0.0,0.0,0.0,0.0,-0.00015999402236971321,-0.00038356792523483381,-0.00049285423394549864,-0.0034777981811350443,-0.00063407422566869487,-0.016610074295070894,0.072246743265443933,0.082100916856307757,0.019052548709869346,0.021837407231295344,0.048278313447910857,0.0953514350470875,0.12705879949986365,0.11839219105179126,0.12385752686047806,0.10970162951840437,0.0,0.0,0.0,0.0,0.0,0.0,0.0,0.0,-5.7678955158370128E-05,-0.00036267800626368294,-0.012461266829764775,-0.0082078700427901247,-0.0012332675527956382,-0.0082574738103388581,0.089750577412137933,0.094881766470983772,0.0056952244632250048,0.016638175681678143,0.079982189604729637,0.11261787467766099,0.0719981848770318,0.1053093660945635,0.13364856999268412,0.1255426549934266,0.0,0.0,0.0,0.0,0.0,0.0,0.0,0.0,0.048199550406135556,0.052518770645651559,-0.010435727358454905,0.054645374838388869,-0.0024114588616197773,0.040826813887676582,0.050400318806926206,0.059574892771577584,0.039977352947056378,0.070850003174250373,0.037773842786677565,0.058895697653810752,0.091412574896263518,0.10243582953668413,0.0255442141757238,0.014731649475813999,0.0,0.0,0.0,0.0,0.0,0.0,0.0,0.0,-0.014183287498344719,0.05506384617748146,-0.017202553540320766,0.025568133191153745,-0.016669680847032031,0.043329957254727179,0.013462620522832489,0.04334822656643713,0.0088145182944389649,0.025363251552667984,0.0072314682464924068,0.018278076494220495,0.060096737252754974,0.14891525520885302,0.1077244922830827,0.034086483300309195,0.0,0.0,0.0,0.0,0.0,0.0,0.0,0.0,0.021597533460605375,-0.0036256805514452034,0.10223463988558659,0.1104435902857024,0.044227930160278692,0.039880528518619007,0.0013937046252538693,0.0016522624825942522,0.017167348800402077,0.064795572956006783,0.027612224110678256,0.042543974506297648,0.065909686043032781,0.024808139194964916,0.055661784147616057,0.091266296421538981,0.0,0.0,0.0,0.0,0.0,0.0,0.0,0.0,-0.0015500351562494658,-0.01992119131467468,0.09837575499581204,0.11155287992227829,0.068202732491713533,0.066274396838084254,0.026406808327144378,0.055895456737808116,0.067271245527827719,0.089695097587280864,0.056674246128112685,0.067347207553881669,0.096642581754625131,0.071101034347715,0.036049107733450624,0.057479781914824994,0.0,0.0,0.0,0.0,0.0,0.0,0.0,0.0,-0.023927609861983164,-0.057866482625330791,0.0011619133040465511,-0.019746773440782919,0.053298998603730934,0.024462926142218969,0.053834024912256515,0.020758650485958062,-0.012060481303466606,0.079136673173192271,0.0070539658543301471,-0.016330279093973544,-0.0024319552264321772,-0.06170842926400881,0.0022093567664100756,0.082653796877757424,0.0,0.0,0.0,0.0,0.0,0.0,0.0,0.0,-0.01828342913813235,-0.050500148309745529,0.016468258116061129,0.023999844139203943,0.041745671003049989,0.000873735933449234,0.021194057658148031,-0.00991359130303301,0.024250605177358664,0.057291889015073448,0.033086870430495026,0.054970379233630622,-0.00031503953074912068,-0.045005600266654823,0.060095687755174439,0.0692997758878936,0.0,0.0,0.0,0.0,0.0,0.0,0.0,0.0,-0.0034875907916651896,-0.017233047624358767,0.038757525709559058,0.054623550647006518,-0.040054202254947636,-0.084287014135476734,-0.15019491710351068,-0.14160490581750546,0.0087828069069614042,0.0041231111324358952,0.047406191902654271,0.017430782002864305,0.017968736551879787,0.00026242629084034921,0.0715954618431026,0.073632030569145746,0.0,0.0,0.0,0.0,0.0,0.0,0.0,0.0,-7.6396520718501025E-05,-0.000571497957483358,0.025499897595648975,0.021233769683012486,-0.022652336471977497,-0.10121893338015713,-0.067775278372865969,-0.029909494857636023,0.00089701847369178271,-0.00019447367145062437,2.6181707992791508E-05,0.036220532324467196,0.024618567302319889,0.048688719472164958,0.049705334525572874,0.12311658170677728,0.0,0.0,0.0,0.0,0.0,0.0,0.0,0.0,0.0045865831912142189,-0.0025772400174937011,0.04027996702323474,0.036491995715597809,0.036848030617043927,0.041120636361128164,-0.0048931489165983267,-0.034703292375983338,-0.015583446020098039,0.017210329365965851,0.033851869077525076,0.0010210582865549903,0.0057903563463194028,0.01368950017799978,0.087143567955875578,0.12959088232517557,0.0,0.0,0.0,0.0,0.0,0.0,0.0,0.0,0.00080776086921457112,-0.0014275307664116863,0.036535245529745651,0.020761966343162585,0.006790367928749731,-0.053036415712304705,0.015174870712480132,-0.08112797312955787,-0.060138770421738909,-0.014384923513772423,0.036615060615714165,-0.0011413209965655529,0.0038931579585180474,0.02194166813184396,0.093440836457923185,0.15102064276967389,0.0,0.0,0.0,0.0,0.0,0.0,0.0,0.0,-0.0034882138015967777,0.056157412197727172,-9.54793721872681E-05,-7.0282495158833412E-05,0.03748226026550476,-0.037021606478284792,0.024690270111799688,0.022699870880960316,-0.0010468713262770484,-0.048460338418794449,-0.022584152663562077,-0.038091152457938877,0.0017575375280581215,0.045718741923372136,0.0686978089348151,-0.0098155912296412386,0.0,0.0,0.0,0.0,0.0,0.0,0.0,0.0,0.050314501616361362,0.046716471506559339,-0.010467168145078516,-0.0319740934731704,0.051048494732173981,0.028053253150058251,0.054926592606384994,0.063586621067065044,0.028425270142889588,0.015808974178956055,0.021997233554237144,-0.021542384511122996,0.068489397600007149,0.042790250757831119,0.012863065329164855,0.039230022432290894,0.0,0.0,0.0,0.0,0.0,0.0,0.0,0.0,0.0,0.0,0.0,0.0,0.0,0.0,0.0,0.0,0.0,0.0,0.0,0.0,0.0,0.0,0.0,0.0,0.0,0.0,0.0,0.0,0.0,0.0,0.0,0.0,0.0,0.0,0.0,0.0,0.0,0.0,0.0,0.0,0.0,0.0,0.0,0.0,0.0,0.0,0.0,0.0,0.0,0.0,0.0,0.0,0.0,0.0,0.0,0.0,0.0,0.0,0.0,0.0,0.0,0.0,0.0,0.0,0.0,0.0,0.0,0.0,0.0,0.0,0.0,0.0,0.0,0.0,0.0,0.0,0.0,0.0,0.0,0.0,0.0,0.0,0.0,0.0,0.0,0.0,0.0,0.0,0.0,0.0,0.0,0.0,0.0,0.0,0.0,0.0,0.0,0.0,0.0,0.0,0.0,0.0,0.0,0.0,0.0,0.0,0.0,0.0,0.0,0.0,0.0,0.0,0.0,0.0,0.0,0.0,0.0,0.0,0.0,0.0,0.0,0.0,0.0,0.0,0.0,0.0,0.0,0.0,0.0,0.0,0.0,0.0,0.0,0.0,0.0,0.0,0.0,0.0,0.0,0.0,0.0,0.0,0.0,0.0,0.0,0.0,0.0,0.0,0.0,0.0,0.0,0.0,0.0,0.0,0.0,0.0,0.0,0.0,0.0,0.0,0.0,0.0,0.0,0.0,0.0,0.0,0.0,0.0,0.0,0.0,0.0,0.0,0.0,0.0,0.0,0.0,0.0,0.0,0.0,0.0,0.0,0.0,0.0,0.0,0.0,0.0,0.0,0.0,0.0,0.0,0.0,0.0,0.0,0.0,0.0,0.0,0.0,0.0,0.0,0.0,-0.0026334343947825027,-0.0030438823272216971,-0.0036311580728545447,-0.00014611752772428677,-0.010582421696126084,-0.01116797057349146,0.0035372907991191695,0.0052385764386239141,-0.017570405831307808,-0.005349578015165681,-0.014970638895322607,-0.0012738789595735393,0.052344208100720234,0.052894305380683515,-0.023424828045206954,-0.050631150666003967,0.0,0.0,0.0,0.0,0.0,0.0,0.0,0.0,-0.0011145994909238625,-0.0040943673190088617,-0.0029450263607364389,-0.016962216039653713,-0.0001438384912216481,0.0018030516945723774,0.0032209890831467005,-0.010232121196998416,0.005689663094977847,-0.031388246674172289,-0.016952156127473316,0.0065521263083823346,0.058400675263059865,0.052393845875678149,0.00050194249458119,0.0028176863346459219,0.0,0.0,0.0,0.0,0.0,0.0,0.0,0.0,-0.00068730088267348016,-0.0047157156508434318,-0.0024115590403177688,-0.014977736033302831,0.032769246699136369,0.029935971452426831,0.021069106406502388,0.025419945538192965,0.00992556216916696,0.015591675249118227,-0.043029346296861531,-0.0022546310949334587,-0.0099382719995768955,-0.015131092739779292,0.0027540353460026989,-0.0063577721598848756,0.0,0.0,0.0,0.0,0.0,0.0,0.0,0.0,-0.0013128221127121926,-0.00438311027976652,0.0043878102262924377,0.0024790534057880322,0.029064880220875954,0.018188191782882113,0.013402863944261885,0.038003146055302861,-0.018604044316544964,-4.5271556598821436E-05,-0.016114790154368893,-0.003866229692783549,-0.0076093916743313018,0.0075476413608928884,-0.009857330890281844,-0.0033595707152433247,0.0,0.0,0.0,0.0,0.0,0.0,0.0,0.0,-0.003116521304064842,-0.00065240309785961719,0.02411485601492824,0.074308582128600115,-0.059080944797116529,-0.01756287838438074,-0.022915040577536676,0.017640366060829894,0.036505993199904781,0.031163448934228087,0.031953160964030163,0.0198164388719225,-0.053756732666646691,-0.042152755489138855,-0.018473174223877391,-0.02233821196735955,0.0,0.0,0.0,0.0,0.0,0.0,0.0,0.0,-3.92191355707168E-05,-0.00039327794837196444,0.056176780536452066,0.097981815092962429,-0.016275611946331228,0.00832660085045166,-0.0010658710940862916,0.033742870551080169,0.072341938938087366,0.055615959512774434,0.011178656052373006,0.023306914193864634,0.026823759065832977,-0.014255162402986955,0.028980725027202382,0.064440719672422681,0.0,0.0,0.0,0.0,0.0,0.0,0.0,0.0,0.035608424957995141,0.031897735372640519,0.083405226708375441,0.070485746281475192,0.084600305429396019,0.080085915594582877,0.092099991618051269,0.13333484521124925,0.079069022675294448,0.085587772454986485,0.10625609316475816,0.065128663272502829,0.045967475765424121,-0.12420079249748239,0.031279944210655594,0.039133971794484169,0.0,0.0,0.0,0.0,0.0,0.0,0.0,0.0,0.03496633925894041,0.029341769558539219,0.068784527630990439,0.074738671205349258,0.10172971221495353,0.0777323916670639,0.12699063824211268,0.083008903393560721,0.034992048089866321,0.058254487542114132,0.027745972329371225,0.0436488601718145,0.012623029435404184,-0.1332885234491524,0.0014966491830286108,-0.012231454963651547,0.0,0.0,0.0,0.0,0.0,0.0,0.0,0.0,-0.0054509702356115358,0.048010688818287489,-0.01639800539102888,-0.0171316194960932,0.035993112285264348,0.0098249850367259518,0.082626610008759316,0.11471152129172518,0.052280845675513665,-0.041285832056742862,-0.030954193440916773,-0.019606779455807688,-0.039129561985285881,-0.041728437952530111,0.019635481557944326,0.024226707086460113,0.0,0.0,0.0,0.0,0.0,0.0,0.0,0.0,-0.0050380119373477144,0.028141011283912526,-0.0011697463125668096,-0.010456905875132497,-0.0061701058124690707,-0.0038405180109711023,0.044265580089548312,0.077577261934399067,0.0019014467592030455,-0.11874667289934764,-0.062580925738511733,0.0091485468425129869,-0.052595766525926721,-0.080637476462715518,-0.0060996635736856736,0.029413517418958736,0.0,0.0,0.0,0.0,0.0,0.0,0.0,0.0,-0.0036047804744135954,-0.0097043963274985236,0.014246765754830616,-0.0019105943414773204,0.017804476102795026,0.022111751658615231,0.078533326553169941,0.10813917786462547,-0.015877342185782579,-0.047328728088531169,0.035727167266554338,0.075539391601031042,-0.061725922635097352,-0.069762109728982072,-0.022895597568071066,0.0016758956401785011,0.0,0.0,0.0,0.0,0.0,0.0,0.0,0.0,-0.0012920154700737537,0.0011777105189150112,0.005479522416942037,0.0047852823328473878,0.0090212212316143209,0.014965446592977379,0.11008222791506642,0.12339788375616373,-0.013697120806975981,0.042515046970942286,0.098062968364977951,0.0717053139676439,-0.014724180632593856,-0.067125494156280038,0.00945671695961726,0.034712026142410132,0.0,0.0,0.0,0.0,0.0,0.0,0.0,0.0,-0.012761918692127398,-0.0085299687032025662,0.033482289479820626,0.044927553254839991,0.0059961486877156446,0.019705832112990342,0.06752191346027174,0.096160355574630457,0.030319556926551108,0.083376205234461445,0.04756228091499435,0.0022432158214915131,0.067551632546821644,0.072389203518781808,-0.058915392877801911,-0.084113664036673669,0.0,0.0,0.0,0.0,0.0,0.0,0.0,0.0,-0.021357358379350152,0.010047653381480948,0.045787529196324443,0.036066119166810372,-0.0081464029224808387,0.012612951071691553,0.080279032840493564,0.039891970014906367,-0.00017439360069592739,0.065899873389994548,0.044954390092525054,0.064183411012636346,0.068850987998665472,0.04020149944467323,-0.012519363798551389,-0.094889567599272237,0.0,0.0,0.0,0.0,0.0,0.0,0.0,0.0,-0.0017153039148141793,0.0071300968943324395,0.014693495130321319,-0.020201590283385064,-0.020191074605090339,0.0069988858784559831,0.024179386982425357,0.0694203017362557,-0.02223753592541719,0.054008547537598241,-0.022909293242514669,0.017005207733771063,-0.0042465896493462194,0.037217884277102195,0.039688957753687928,0.020812003627429704,0.0,0.0,0.0,0.0,0.0,0.0,0.0,0.0,-0.0082560056819071109,-0.024004697533899281,0.020784000587793186,-0.0042230978694929606,-0.018356739646844464,-0.015097843197176844,0.014893988777140736,-0.029082432125150121,-0.028393463529484859,-0.010713376862290541,-0.033929969337105709,-0.046599403283785909,-0.00045651642632103687,0.019462767494233632,-0.01849753541196655,-0.055696007672529413,0.0,0.0,0.0,0.0,0.0,0.0,0.0,0.0,0.0,0.0,0.0,0.0,0.0,0.0,0.0,0.0,0.0,0.0,0.0,0.0,0.0,0.0,0.0,0.0,0.0,0.0,0.0,0.0,0.0,0.0,0.0,0.0,0.0,0.0,0.0,0.0,0.0,0.0,0.0,0.0,0.0,0.0,0.0,0.0,0.0,0.0,0.0,0.0,0.0,0.0,0.0,0.0,0.0,0.0,0.0,0.0,0.0,0.0,0.0,0.0,0.0,0.0,0.0,0.0,0.0,0.0,0.0,0.0,0.0,0.0,0.0,0.0,0.0,0.0,0.0,0.0,0.0,0.0,0.0,0.0,0.0,0.0,0.0,0.0,0.0,0.0,0.0,0.0,0.0,0.0,0.0,0.0,0.0,0.0,0.0,0.0,0.0,0.0,0.0,0.0,0.0,0.0,0.0,0.0,0.0,0.0,0.0,0.0,0.0,0.0,0.0,0.0,0.0,0.0,0.0,0.0,0.0,0.0,0.0,0.0,0.0,0.0,0.0,0.0,0.0,0.0,0.0,0.0,0.0,0.0,0.0,0.0,0.0,0.0,0.0,0.0,0.0,0.0,0.0,0.0,0.0,0.0,0.0,0.0,0.0,0.0,0.0,0.0,0.0,0.0,0.0,0.0,0.0,0.0,0.0,0.0,0.0,0.0,0.0,0.0,0.0,0.0,0.0,0.0,0.0,0.0,0.0,0.0,0.0,0.0,0.0,0.0,0.0,0.0,0.0,0.0,0.0,0.0,0.0,0.0,0.0,0.0,0.0,0.0,0.0,0.0,0.0,0.0,0.0,0.0,0.0,0.0,0.0,0.0,0.0,0.0,0.0,0.0,0.0,0.0,-0.00013758094194383705,-0.0010016852170566381,-9.4110741304919107E-05,-0.00040751896908467806,0.0067244264425775331,0.013721709996946774,0.007287644130006034,-0.00030165274773784247,0.040723460947381426,0.024450270616907892,0.046480843784059367,0.054819430563445036,0.057394356280820139,0.046067816596769867,0.02663251069175995,-0.021906673083200816,0.0,0.0,0.0,0.0,0.0,0.0,0.0,0.0,-0.00046205767255673392,-0.0020858560083954506,-0.00052752489785914708,-0.0025676617057272862,0.012500742762013734,0.0419329617352031,0.0060027432937290329,0.034568135023976057,0.047395018215378837,0.023126283381814258,-0.0005937503135866074,2.3423488546095332E-05,0.031135421782298139,0.044686960560338045,0.0516573003358421,0.015952864763199941,0.0,0.0,0.0,0.0,0.0,0.0,0.0,0.0,-0.00035114458090771029,-0.0012645738798968376,0.004450205105489667,-0.00040120927168438107,0.10540418426169255,0.0811164773178104,0.089218806840206055,0.043208887020382454,0.059707583948562779,0.081807714530270276,0.050560199740633367,0.020963700276306757,0.085464921848133937,0.076182731956628072,0.090902047587794452,0.061404681763818955,0.0,0.0,0.0,0.0,0.0,0.0,0.0,0.0,-0.00028138811254906396,-0.00069494878838534391,-0.00055465050644257219,-0.00093131158989811624,0.08146611682959945,0.073323312151775483,0.054131885536155583,0.0079886563234093984,0.035897551940872151,0.066314446071644551,0.039336591976703923,0.063475902986263058,0.098015244532816861,0.089075978108380444,0.087215652603124083,0.081512431635529584,0.0,0.0,0.0,0.0,0.0,0.0,0.0,0.0,-0.0046674329731596735,-0.0072252529945507618,0.041875430222978828,0.022702321008253919,-0.0029193701842879791,-0.00076965989499616541,-6.597360737734052E-05,-0.00018390305986152277,0.00392264938538407,0.034072635264225347,0.010457983068472289,0.0619642254767907,0.060569422027707355,0.071155992540061427,-0.002643631369386024,-0.0039928243528961176,0.0,0.0,0.0,0.0,0.0,0.0,0.0,0.0,-0.0077312303355153763,-0.013367108644589752,0.057112126322146378,0.021734850818904028,-0.0010066479928526437,0.0015748039347319531,-0.00016832595687510336,-0.0003270858361974757,0.039188952910656411,0.044859358192824238,0.028970892697247883,0.0851077090144271,0.10623482425716002,0.071202432348426783,0.0048930358809192859,0.0037971374409520222,0.0,0.0,0.0,0.0,0.0,0.0,0.0,0.0,-0.017188927381628697,-0.0096232858104758935,0.023780169366265889,0.026924535625649025,-9.4511670407118929E-05,-0.00062412283056899527,0.060811858471532837,0.0258814611860156,-0.0042576154925223512,-0.00875988436606735,-0.023657096321607392,-0.02271446153301418,-0.092398093291935435,-0.094282266181593063,-0.054479231323389436,-0.062734887025871683,0.0,0.0,0.0,0.0,0.0,0.0,0.0,0.0,-0.023217422607824056,-0.025720972462665428,0.01875124752511613,0.024735486306703306,0.0058186162399656771,0.0061875206917454033,0.0072334812508578362,0.054331829203974655,-0.024784622740139758,-0.0078153036716008418,-0.055082496482137845,-0.088620587438915432,-0.099824031016721992,-0.099039728145278519,-0.049312637182284687,-0.067898305138366227,0.0,0.0,0.0,0.0,0.0,0.0,0.0,0.0,-0.00075222667728639346,0.0083508283147695848,-0.0023257076753342748,-0.0045567711209249205,0.024420138243219751,0.020987125393722127,-0.040934322778169732,-0.028019826953609755,-0.051854110434337679,-0.039868034949150012,-0.016767826110628863,-0.0611102278852681,-0.098673601651624268,-0.11508502100019223,-0.089523958821203037,-0.058027656733554034,0.0,0.0,0.0,0.0,0.0,0.0,0.0,0.0,-0.00091247833595276971,0.015613809620220583,0.011379042311426196,-0.011235177129121053,0.031712979063556107,0.011002309227274462,-0.0454481469645495,-0.019840111140238405,-0.061908503059928996,-0.039990746121031213,-0.026509074126003378,-0.045493029934974366,-0.10825850310526572,-0.1197935445449394,-0.051378131387998384,0.0037230927910185028,0.0,0.0,0.0,0.0,0.0,0.0,0.0,0.0,-0.0072172643522555287,-0.01172544105251774,0.050038186823781819,0.035370279419625068,0.074075838886531645,0.0696133268486891,-0.044568918983450084,-0.0011733890916959073,0.028665926121055996,0.026031759763127948,-9.0759604463527222E-05,0.0020495020057985807,0.00525729325734321,-0.001494986418259055,-0.086204477301032964,-0.076887975177614726,0.0,0.0,0.0,0.0,0.0,0.0,0.0,0.0,-0.0017490941244279236,-0.015636357499974617,-0.014885366776183321,0.029145571140492911,0.061074716579460876,0.065526114487996293,-0.018573539346847735,-0.0035095813472868277,0.002736924859041959,-0.0027011298434532153,-0.008513524519246269,0.0025981495706026946,0.0037480889309977586,0.016618804153183109,-0.072152156392319561,-0.07293582139121324,0.0,0.0,0.0,0.0,0.0,0.0,0.0,0.0,-0.0003478517124927795,-2.0115110843090751E-05,-0.0056098436818917893,-0.0011903459460814356,-0.00067078319350152263,0.0145804468539226,-0.0048725568284479909,0.01445129340414307,-0.05280621772920259,-0.00553774612943455,-0.019709159924643508,-0.018050457276363483,-0.00467256998845274,0.0081273741380414113,-0.081610942667506112,-0.080710358470147153,0.0,0.0,0.0,0.0,0.0,0.0,0.0,0.0,-1.7071594722729295E-05,-1.351749819900567E-05,0.019413304782991175,0.028062248396839646,0.0041774310767539076,0.014775557220000542,0.0013757768157414956,-0.00052620802470194634,-0.036398144928353783,-0.0026664013489466685,-0.0042176412586275233,-0.0388544006895974,0.026719115392171325,0.0061039394546425008,-0.0777093086826044,-0.10189934126895955,0.0,0.0,0.0,0.0,0.0,0.0,0.0,0.0,0.019558940256741143,0.025475971199948166,0.031573350916470219,0.059108353411813981,-0.00981694510844937,-0.0098566263462426737,-0.04538891836935504,-0.0390067715518232,-0.068793815324808508,-0.054823553441393232,-0.016710940791755152,-0.040136475915545464,-0.1070954086695967,-0.11962427223349721,-0.085384382110480148,-0.10135305170218996,0.0,0.0,0.0,0.0,0.0,0.0,0.0,0.0,0.012327056782252757,0.039281845290202587,0.058928714550904711,0.069541690359932656,-0.00010928382448744123,-0.00018889204400075721,-0.0659879263076762,-0.076158698477813272,-0.092407288459014317,-0.13307273879059234,-0.068751352122682519,-0.06091812571961077,-0.12721009655073287,-0.12911135967805862,-0.092472879212058046,-0.0996220446644395,0.0,0.0,0.0,0.0,0.0,0.0,0.0,0.0,0.0,0.0,0.0,0.0,0.0,0.0,0.0,0.0,0.0,0.0,0.0,0.0,0.0,0.0,0.0,0.0,0.0,0.0,0.0,0.0,0.0,0.0,0.0,0.0,0.0,0.0,0.0,0.0,0.0,0.0,0.0,0.0,0.0,0.0,0.0,0.0,0.0,0.0,0.0,0.0,0.0,0.0,0.0,0.0,0.0,0.0,0.0,0.0,0.0,0.0,0.0,0.0,0.0,0.0,0.0,0.0,0.0,0.0,0.0,0.0,0.0,0.0,0.0,0.0,0.0,0.0,0.0,0.0,0.0,0.0,0.0,0.0,0.0,0.0,0.0,0.0,0.0,0.0,0.0,0.0,0.0,0.0,0.0,0.0,0.0,0.0,0.0,0.0,0.0,0.0,0.0,0.0,0.0,0.0,0.0,0.0,0.0,0.0,0.0,0.0,0.0,0.0,0.0,0.0,0.0,0.0,0.0,0.0,0.0,0.0,0.0,0.0,0.0,0.0,0.0,0.0,0.0,0.0,0.0,0.0,0.0,0.0,0.0,0.0,0.0,0.0,0.0,0.0,0.0,0.0,0.0,0.0,0.0,0.0,0.0,0.0,0.0,0.0,0.0,0.0,0.0,0.0,0.0,0.0,0.0,0.0,0.0,0.0,0.0,0.0,0.0,0.0,0.0,0.0,0.0,0.0,0.0,0.0,0.0,0.0,0.0,0.0,0.0,0.0,0.0,0.0,0.0,0.0,0.0,0.0,0.0,0.0,0.0,0.0,0.0,0.0,0.0,0.0,0.0,0.0,0.0,0.0,0.0,0.0,0.0,0.0,0.0,0.0,0.0,0.0,0.0,0.0,-0.0001026954867431425,-0.00081166870614129635,-0.0051988632901468646,-0.000383728589472925,-0.0016753123403939567,0.0041266159673463117,0.0057044096663262638,-0.0024028850178684836,0.076348974936969988,0.084472593568447565,0.018562671469322042,0.060905209177823792,-2.3160697973455479E-05,-0.0019458473743086452,-0.00926010513532007,-0.0010089083353272638,0.0,0.0,0.0,0.0,0.0,0.0,0.0,0.0,0.0010467422643115067,-0.00043636817326811776,-0.00017261854544448326,-4.7571925535323208E-06,-0.0012451327801804055,-0.0045527693750549835,0.015294245372955389,0.017181314998350891,0.10471779030820694,0.097063745059450979,0.06520005688526731,0.049656818246369971,0.0073518492045698556,0.016733905732474613,0.013127348246467762,0.01245936786004391,0.0,0.0,0.0,0.0,0.0,0.0,0.0,0.0,0.022869076586849647,0.033284850806463408,0.0353570310884525,0.035887234870986585,0.073151134399160586,0.0690049459145585,0.081683209617617852,0.089988597424816491,0.15814572253058409,0.18604864714161987,0.049093070112654146,0.044426627247808895,0.031360986231942688,0.01255418293208627,0.006088105112140244,0.0092784961928045716,0.0,0.0,0.0,0.0,0.0,0.0,0.0,0.0,-0.0041876883270087935,0.03637120446647317,-0.022799289864845695,0.038681378045366054,0.0741425402800182,0.078447045320205216,0.075553097673571171,0.0827953559489814,0.16027003260542053,0.16932097516727934,0.0649219673247762,0.046074060820855391,0.027974107205151085,0.039135077988345382,0.017627662738367553,0.040608288241969562,0.0,0.0,0.0,0.0,0.0,0.0,0.0,0.0,-0.011165747660967978,0.0062587986302140384,-0.0029767115441992572,-0.010261408136524134,-0.018196977278618232,0.041806250414382587,0.017764593068954532,0.12233933152822892,0.14028011346687611,0.09170726988812429,0.049336568944958893,0.084656882172932491,-0.006754092618292724,-0.0013017982465929154,-0.032117448750937513,-0.016843107659768864,0.0,0.0,0.0,0.0,0.0,0.0,0.0,0.0,0.014143678201831987,-0.0030330083031735212,-0.0011559932248048413,-0.013917816292386899,0.0594054949862847,-0.013094748482793461,0.079385665251638787,0.14716957656466406,0.13937220298123218,0.084206579281090987,0.10427115602441275,0.072614321686308547,0.032860153934767683,-0.0076467386067986271,-0.0348945558631704,0.023404792113503239,0.0,0.0,0.0,0.0,0.0,0.0,0.0,0.0,0.013252869459470421,0.024377798168822903,0.054873966221051215,0.073861040006454146,0.043400330593365247,-0.0019865964611813945,0.043714097364896183,0.12121179900537515,0.082565795622095831,0.082663052273168836,0.030009521274212064,0.001375938369807955,-0.022121190358982887,-0.033704262556953059,-0.0086980522045926965,0.021087127883224123,0.0,0.0,0.0,0.0,0.0,0.0,0.0,0.0,-0.0037001986952614366,-0.0061219949210956671,0.059485104580780386,0.0772515331001473,-0.01633022728762552,-0.011746689330149725,0.053507170762151411,0.13507597812742087,0.10026342315266612,0.08742422863232803,-0.022396237630563007,-0.08656065262207,0.042840223101648547,0.021660986437127123,-0.013132602508770916,0.0059128135095421483,0.0,0.0,0.0,0.0,0.0,0.0,0.0,0.0,0.09269721720221108,0.0996326223481781,0.073621883174164668,0.065861720211602678,0.023207616800272696,-0.0028014121998039166,0.023170636597237792,0.030923744405088549,-0.0049273728756897769,0.0057173657193861369,-0.042663049114469387,-0.023476656982495459,-0.015696826416920322,-0.0356391567390745,-0.098521086406290384,-0.11328453136470212,0.0,0.0,0.0,0.0,0.0,0.0,0.0,0.0,0.0992050202856244,0.10474034322645534,0.065066972182262581,0.065316740770013648,0.017411711878773172,0.022375718127651451,-0.0096960602862240838,0.045267071036066239,0.025462268605874857,0.03938313328138858,-0.027894543555315905,-0.043070718150280532,0.036294084666388754,0.0052649685893990539,-0.072374186417613076,-0.050382935990087994,0.0,0.0,0.0,0.0,0.0,0.0,0.0,0.0,-0.0031338328051125465,0.055739054957692165,0.039630201338939977,0.04838129151631964,0.11447261435140226,0.060447616756667537,0.052679400943830022,0.049520728137913771,0.030050192606026174,0.061601537116918396,-0.024382989208778849,0.019787169933558713,0.055581663864110016,-0.0091952504118397432,-0.071189436833007158,-0.037748625789615076,0.0,0.0,0.0,0.0,0.0,0.0,0.0,0.0,-0.0027915290630961048,0.07362526825872627,-0.01409841569038698,0.069345531681802908,0.088024724016340525,0.049679953913745967,0.010086757972676533,0.06070700724796313,0.047758409867604025,0.029841755826665994,-0.019018142982046529,0.05434300845836873,0.032535510401322354,-0.047451933617820158,-0.028147479923351332,-0.0345247283282251,0.0,0.0,0.0,0.0,0.0,0.0,0.0,0.0,-0.0010909536222247973,-0.0017484408873127335,0.045108140554993924,0.10630445170480644,0.07406499811556061,0.04223438813115888,0.036814972304940338,-0.017850378110037434,-0.04604212751611,-0.055474134688614764,-0.0833261849145146,-0.078396660408835417,0.013535409624625594,0.037336653298955344,-0.010659650051359375,-0.018985783732294013,0.0,0.0,0.0,0.0,0.0,0.0,0.0,0.0,-9.2632350882071069E-05,-0.0072718734027915084,0.055453492478555223,0.073465796856261617,0.048552128704785084,0.030804966595935224,-0.0087065630357959,-0.028128723533501689,-0.041328202263803258,0.011590963993217785,-0.038193309695815671,-0.020538411298709362,0.054525452432310759,0.071415923135653481,0.019976522093797102,0.028486332104645521,0.0,0.0,0.0,0.0,0.0,0.0,0.0,0.0,-0.0028631806861510569,-0.0069852201447916122,-0.026208123757700853,0.016216003329684675,0.08386918316080183,0.0822711278541454,0.0094644916284626918,0.0329313759173329,0.0219383309764701,-0.053567396368220645,-0.039459717556013671,-0.038667834305352165,0.058833582132503136,0.045639996696770248,-0.10543769423805585,-0.092833377933042208,0.0,0.0,0.0,0.0,0.0,0.0,0.0,0.0,-0.001384217661694165,0.0315341446167385,0.036486030943258439,0.01054986351236583,0.074055942537591943,0.029681282577223102,0.056480760615120196,0.11997258914970237,-0.016724728550276968,-0.018623905220126118,-0.039682680206865807,-0.043853845627875455,0.049718537106876688,0.020835157514665258,-0.091031117703433251,-0.045067619984574793,0.0,0.0,0.0,0.0,0.0,0.0,0.0,0.0,0.0,0.0,0.0,0.0,0.0,0.0,0.0,0.0,0.0,0.0,0.0,0.0,0.0,0.0,0.0,0.0,0.0,0.0,0.0,0.0,0.0,0.0,0.0,0.0,0.0,0.0,0.0,0.0,0.0,0.0,0.0,0.0,0.0,0.0,0.0,0.0,0.0,0.0,0.0,0.0,0.0,0.0,0.0,0.0,0.0,0.0,0.0,0.0,0.0,0.0,0.0,0.0,0.0,0.0,0.0,0.0,0.0,0.0,0.0,0.0,0.0,0.0,0.0,0.0,0.0,0.0,0.0,0.0,0.0,0.0,0.0,0.0,0.0,0.0,0.0,0.0,0.0,0.0,0.0,0.0,0.0,0.0,0.0,0.0,0.0,0.0,0.0,0.0,0.0,0.0,0.0,0.0,0.0,0.0,0.0,0.0,0.0,0.0,0.0,0.0,0.0,0.0,0.0,0.0,0.0,0.0,0.0,0.0,0.0,0.0,0.0,0.0,0.0,0.0,0.0,0.0,0.0,0.0,0.0,0.0,0.0,0.0,0.0,0.0,0.0,0.0,0.0,0.0,0.0,0.0,0.0,0.0,0.0,0.0,0.0,0.0,0.0,0.0,0.0,0.0,0.0,0.0,0.0,0.0,0.0,0.0,0.0,0.0,0.0,0.0,0.0,0.0,0.0,0.0,0.0,0.0,0.0,0.0,0.0,0.0,0.0,0.0,0.0,0.0,0.0,0.0,0.0,0.0,0.0,0.0,0.0,0.0,0.0,0.0,0.0,0.0,0.0,0.0,0.0,0.0,0.0,0.0,0.0,0.0,0.0,0.0,0.0,0.0,0.0,0.0,0.0,0.0,-0.0012524196334681439,-0.0010488321770474986,-0.00036742448821113047,-0.00019854429921087053,-0.0082104690251720049,-0.0063033287400765066,0.0701018710080508,0.039072810350694723,0.034483122199276572,0.056927593177337088,0.048027752062149008,0.036017166290485923,-0.0041519190386340729,-0.0035256096959758562,-0.0053222147442552915,-0.0030909226429315559,0.0,0.0,0.0,0.0,0.0,0.0,0.0,0.0,-0.00054727160201139765,-0.00050825849914959659,-0.0033657322895524568,-0.00092302360910015261,-0.00037388608735082832,-0.0011563312893759681,0.066898810013127,0.07857468733580189,0.073070509347461343,0.073472890724421036,-0.0036254951225611538,0.015015542941981633,0.016803571740526688,-0.05478462810156489,-0.092424622586113336,-0.084877035814120524,0.0,0.0,0.0,0.0,0.0,0.0,0.0,0.0,-0.0010465300921411451,-0.00062429867810478241,-0.00052838698282421507,-0.0016448838822057644,-4.6169645924451321E-05,-0.012401251519441478,0.049444670592050134,0.046006124656588862,0.012968735595732247,0.0074979513780806563,-0.0045866446911472869,-0.0048099439048291939,-0.056987118216320361,-0.057844143966535075,-0.052690419509246328,-0.084330935491657072,0.0,0.0,0.0,0.0,0.0,0.0,0.0,0.0,-0.002541272391865581,-0.00022522996405132943,-0.00082361453982059162,-0.001071417263510871,-5.3424423672979812E-05,-0.00017406844075578367,0.0607438095791061,0.048728860758998717,0.021140187440283821,0.076297148278466356,0.042218426689372347,0.044278536306227446,0.011597576219366671,0.018179641253074391,0.031409382905269116,-0.054608147893078086,0.0,0.0,0.0,0.0,0.0,0.0,0.0,0.0,-0.0089967546165911488,-0.0030559443520296642,-0.0062878512383392673,-0.026567649098435009,-0.0021137008686501237,-0.0047909920147035179,0.031246824742174974,-0.0088899728485813991,-0.00820427918284428,0.0010470340204989342,-0.016367083006100104,-0.00868310548652578,0.052714066591859808,0.031201772525042765,0.012849154604348975,-0.0079623216871276027,0.0,0.0,0.0,0.0,0.0,0.0,0.0,0.0,-0.00503011705767504,-0.00066091976583253036,-0.0019325013727860265,-0.0093535223595762242,-0.027103884819006673,0.0065777414699837783,0.0044129383373693988,0.040113472621334842,0.013941220308288628,0.060608950211521823,-0.03291232521674875,-0.05941728765511093,0.041133861835384776,0.019367819856812751,0.023163181177488983,0.019581823561207638,0.0,0.0,0.0,0.0,0.0,0.0,0.0,0.0,-0.0023797136377403678,-0.0096955464391541221,-0.0070703950864443007,-0.012856818395314546,-0.0042256756186079877,-0.00014827737343319804,-0.013465355913060998,-0.013564138666288868,0.017795376906629027,0.036931297910723991,0.017964070304396632,0.066555641612566871,0.037034199429643165,0.035115953844517891,0.022470588539036579,0.027822047665181052,0.0,0.0,0.0,0.0,0.0,0.0,0.0,0.0,-0.00075981201177196,-0.017026008763362441,-0.0019528994087097827,0.0046076878138119953,-3.2639172389326193E-05,0.00083725208499546,-4.50571551054269E-05,0.0063500246020402025,0.034158595129029315,0.041464679936031611,0.0099900398425961847,0.060990857388070391,0.027127941194196196,0.064800207993749276,0.054276606463205042,0.011695143385368912,0.0,0.0,0.0,0.0,0.0,0.0,0.0,0.0,-0.007813088875914833,-0.040479397104183384,-0.035610508236493761,-0.05450585074816091,0.075797556664799454,0.036896248946880414,-0.043305921280190944,-0.0027478276456262183,-0.019438247593858517,-0.012859667547331592,-0.022168756713080513,-0.014177203255277666,0.010648671238991136,0.048675876119707806,-0.08941895958165845,-0.0951371333202088,0.0,0.0,0.0,0.0,0.0,0.0,0.0,0.0,-0.051718873333715512,-0.029719458343868747,-0.058562223734960117,-0.05864246641357404,-0.020080814764357482,0.0520196576840075,-0.035181932631098013,-0.0541961037958851,0.016927828148592953,-0.00862993624397757,-0.0684913266722216,-0.036426198110851606,0.038106453886713673,0.098814628508664071,-0.0954398980664861,-0.062885639376619867,0.0,0.0,0.0,0.0,0.0,0.0,0.0,0.0,0.023501625102914713,0.009061090959753465,-0.04901457942790375,0.030727157719790371,0.048113456567821525,-0.051772361821169115,-0.014691312438074708,-0.0023201819996942819,-0.051191984665679709,-0.032131559239782378,-0.14182974987544852,-0.058288349853043368,0.015772444169224662,0.068374541810075323,-0.02662189727272966,-0.049850170368338893,0.0,0.0,0.0,0.0,0.0,0.0,0.0,0.0,0.009602325332177827,-0.018832892907275391,0.042420767914001414,0.032689420193655117,0.016668780152396083,0.02473438188648772,-0.034121353463964825,0.0037245229165304631,-0.033126967382712612,-0.010189807851331304,-0.13314954514007291,-0.086063304635850019,-0.007897261710438799,0.0061277786601998934,-0.013462195259648145,-0.046452286465146785,0.0,0.0,0.0,0.0,0.0,0.0,0.0,0.0,-0.0036699648605907583,-0.014653897042947407,-0.00010822527771356834,-0.0038809083258172965,0.040071715859435475,0.10593693213562988,0.049275306585294464,0.0465116050017012,0.00950318499140674,-0.00095775569777494071,-0.027948254214716733,-0.0087124424474806488,0.030851879123464231,0.05883548760974551,0.013710864536162885,-0.012353032868341964,0.0,0.0,0.0,0.0,0.0,0.0,0.0,0.0,-0.0011455809153968649,-0.00727915828078353,-0.016484761603391556,-0.011493778395292207,0.030534124553018422,0.11980864343973641,0.0485551823219783,0.076833956462619313,-0.0002229517230376973,0.052914102992536315,-0.06851717744080861,-0.082668054133311256,-0.0069714700925156067,0.11441084315866176,9.3752743257000793E-05,-0.0035592406070542072,0.0,0.0,0.0,0.0,0.0,0.0,0.0,0.0,-0.015529775364788726,-0.021800087686034361,0.024503398005901327,0.050778408731715352,-0.028911018374158031,-0.081485698964487,0.017881068073311034,0.04753969730756414,-0.0011472396066744117,0.0043968126081592607,-0.015560263435186282,0.048535011337787787,-0.00603612321387847,0.093020915374782645,-0.000724826087687844,-0.044793150917015391,0.0,0.0,0.0,0.0,0.0,0.0,0.0,0.0,-0.012187049952251684,-0.0014014273689138186,0.014067918520197811,0.085890654131864877,0.023713316546406984,-0.038771831528690764,0.047303822298688125,0.066297933369759685,0.01355516912910113,0.027923321677758604,-0.036104911542428314,0.050497951200712342,0.0510699782720088,0.035879100769954021,-0.0071530768978096482,-0.049907698108160488,0.0,0.0,0.0,0.0,0.0,0.0,0.0,0.0,0.0,0.0,0.0,0.0,0.0,0.0,0.0,0.0,0.0,0.0,0.0,0.0,0.0,0.0,0.0,0.0,0.0,0.0,0.0,0.0,0.0,0.0,0.0,0.0,0.0,0.0,0.0,0.0,0.0,0.0,0.0,0.0,0.0,0.0,0.0,0.0,0.0,0.0,0.0,0.0,0.0,0.0,0.0,0.0,0.0,0.0,0.0,0.0,0.0,0.0,0.0,0.0,0.0,0.0,0.0,0.0,0.0,0.0,0.0,0.0,0.0,0.0,0.0,0.0,0.0,0.0,0.0,0.0,0.0,0.0,0.0,0.0,0.0,0.0,0.0,0.0,0.0,0.0,0.0,0.0,0.0,0.0,0.0,0.0,0.0,0.0,0.0,0.0,0.0,0.0,0.0,0.0,0.0,0.0,0.0,0.0,0.0,0.0,0.0,0.0,0.0,0.0,0.0,0.0,0.0,0.0,0.0,0.0,0.0,0.0,0.0,0.0,0.0,0.0,0.0,0.0,0.0,0.0,0.0,0.0,0.0,0.0,0.0,0.0,0.0,0.0,0.0,0.0,0.0,0.0,0.0,0.0,0.0,0.0,0.0,0.0,0.0,0.0,0.0,0.0,0.0,0.0,0.0,0.0,0.0,0.0,0.0,0.0,0.0,0.0,0.0,0.0,0.0,0.0,0.0,0.0,0.0,0.0,0.0,0.0,0.0,0.0,0.0,0.0,0.0,0.0,0.0,0.0,0.0,0.0,0.0,0.0,0.0,0.0,0.0,0.0,0.0,0.0,0.0,0.0,0.0,0.0,0.0,0.0,0.0,0.0,0.0,0.0,0.0,0.0,0.0,0.0,-0.0042337909019840242,-0.0028711140454762956,-0.000117448693785052,-0.00089056673519959508,-0.00020439740819248458,-0.0012849410192305563,-0.00124876868643713,-0.0016030405532794592,0.0110672465549094,0.014463467320184645,0.00086790532936331221,-0.0048988615360719533,-0.022749846723544662,-0.028331739295709965,-0.0034307442240230383,-0.0087020441804939175,0.0,0.0,0.0,0.0,0.0,0.0,0.0,0.0,-0.00024753134797471187,-9.0407895624152875E-05,-0.0014648026076097304,-0.0010373777660235924,-0.00072473262913703442,0.0049201350161574035,-3.441790260608359E-05,0.00010795851498747077,0.0066662942445053107,0.019771179200323417,-0.041587700993690475,-0.044227756707618249,-0.022099754447083033,-0.028633670589847851,-0.020274944171913084,-0.0282047750450657,0.0,0.0,0.0,0.0,0.0,0.0,0.0,0.0,-0.00029752889038622913,-0.0034476556467896583,-0.0026440233283753041,-0.0085209307300167861,-0.023260931862937824,-0.063596770794627486,-0.00270972109541369,-0.021042006458125869,-0.0051661629103501271,0.045575267695431639,-0.020347778027471695,-0.013894289083153825,-0.032024000759009623,0.03153592489535844,0.030541969793551064,0.0889757670253754,0.0,0.0,0.0,0.0,0.0,0.0,0.0,0.0,-0.0012672986228607229,-0.0039624996126284666,-0.0025603290813293769,-0.0028464121123580855,-0.0047513612427341669,-0.0066208378102827169,-0.00035127260642332748,-0.010435430572026123,-0.0026359972774364746,0.066274578837153986,0.036450479189209725,0.020701481598909725,0.014718201003512888,0.019054753171487852,0.030115835941081814,0.048522958618822623,0.0,0.0,0.0,0.0,0.0,0.0,0.0,0.0,-0.0066477981346452454,-0.013898188733937318,-0.020728312600289584,-0.016496396417098894,-0.0066175634226507511,0.0013137931672738789,-0.0024430188533655565,-0.0032626653882205261,-0.00029684231832327693,0.029392182719611408,0.091462472360228392,0.078406081962438687,0.074238992908663134,0.11385998564189354,-0.046259777747886748,-0.033287548392181558,0.0,0.0,0.0,0.0,0.0,0.0,0.0,0.0,0.010336532025383875,-0.001547175328497816,-0.0048358197567106064,-0.0056087028119349239,0.0023758098496171284,-0.00013616166376039134,0.0055935174330449524,0.00015491878726687087,0.041929261183595579,0.049751857967713767,0.0701519885058984,0.019662813283558029,0.036109886111547286,0.09036405308913921,-0.020681799275388334,-0.055944913711245062,0.0,0.0,0.0,0.0,0.0,0.0,0.0,0.0,-0.00076079354925124849,-0.0003551728133562316,-0.00064764201125579136,0.019076633177664632,0.03553195703727155,0.05920764793851354,0.0055864364217737958,0.072351251871035221,0.088278453066818974,0.011884229975186856,0.0061509657122915439,0.005531566050811355,-0.031041104592791319,-0.035346432815424718,-0.018683677827307493,-0.09057661831649165,0.0,0.0,0.0,0.0,0.0,0.0,0.0,0.0,-0.00575906522973654,-0.0076009970562916571,-0.00074011839361866512,0.0039589773635115731,-0.01621750078836981,0.025085727952902741,-0.014009395301182807,-0.00059642214267082046,0.028830685099394147,-0.034514112178278017,-0.04050622277061712,-0.011629628789901937,-0.0063396399433012637,-0.029575149604360192,-0.043234754231410329,-0.031742671171934585,0.0,0.0,0.0,0.0,0.0,0.0,0.0,0.0,-0.00019186575328394937,-0.0018399335622894543,-0.00047587492526336711,0.01077181125097057,-0.001828390396560397,0.0023422593720585703,0.0027033765085622977,0.076110851533588111,-0.073380648106828733,-0.014578275391592977,-0.029181861610512928,-0.0017452880725907479,0.016736014748277853,0.010856493335795968,-0.10198600799931418,-0.083635345526421129,0.0,0.0,0.0,0.0,0.0,0.0,0.0,0.0,-0.016529101636527006,-0.033225282166175873,-0.026698569805923035,0.0028590717087136125,-0.049160983788239881,-0.0017065745728369411,0.0082310076117062762,0.037613171304812239,-0.010755973348067653,0.089522743870188035,0.0057612842863047223,0.059636041525466685,-0.025020119080352645,-0.03171634630334786,-0.14560077543635602,-0.11720495723952175,0.0,0.0,0.0,0.0,0.0,0.0,0.0,0.0,-0.0003474547552331169,-0.0047878062656960523,-0.000963124980367531,0.027670990866322697,-0.012440102820732119,-0.0080703377183149027,0.026598218003892893,-0.012429696024321105,0.0037569823027655352,0.11222492315378822,0.042855499621662366,0.070845563875085185,0.023792792928419834,0.035014786698678607,0.023838598338276805,0.020018579116367678,0.0,0.0,0.0,0.0,0.0,0.0,0.0,0.0,0.007414445997834882,-0.0039000000648957023,-0.0045615213873934548,0.053517236888368971,0.027361009247860807,0.0056363677295286534,0.045482739762839494,0.08022065599591599,0.039272023569625232,0.087374224383090851,0.043624571702755854,0.023066346842494354,0.023226106537170527,0.0246009078841071,0.019703802863590882,-0.055275245325742406,0.0,0.0,0.0,0.0,0.0,0.0,0.0,0.0,-0.00069829884838800772,-0.007329208464077884,0.015185693787132047,0.023176490532763036,-0.036883963546629879,-0.058400610352176745,-0.024878020468396472,-0.035317822773636535,0.033147746969661974,7.9658518711162092E-05,0.00074913889416665543,-0.041309816424501822,-0.026680127766556098,-0.032486427999560967,-0.0096272106678153956,-0.028412069638891202,0.0,0.0,0.0,0.0,0.0,0.0,0.0,0.0,-0.0067695997611903012,-0.0013158131328322596,-0.0096917146996646011,-0.039945547977872468,0.01711339867201965,-0.025151166586388218,-0.019326361159705385,0.044393893489191143,-0.0034714609478856775,-0.016197231942630154,0.015387808240786208,-0.019268682240900843,0.0093052595684956687,-0.015682130817146988,0.00015177598759511646,-0.028933335639396495,0.0,0.0,0.0,0.0,0.0,0.0,0.0,0.0,-0.016508605786596176,-0.043857585889262446,-0.034578167299356435,-0.043825785939812623,0.023883448545080687,0.040432281236716307,0.00407142462086083,0.037042062247102776,0.011102379373185246,0.054261705532270693,0.014127821634766244,-0.026434602965831611,-0.046478455794494868,0.017656159494090936,-0.036041644358458719,-0.018205084013946493,0.0,0.0,0.0,0.0,0.0,0.0,0.0,0.0,-0.013849539441396008,0.0051292465777453,-0.010221754894510871,0.020315926624498451,-0.03370670354633358,0.0070521430245986611,0.033684229476283641,0.082876587344625829,0.0477601249541678,0.034979296883463129,-0.030376256108054989,-0.044930598678608338,-0.006313257670279614,0.0043492205181440919,-0.018462622543402155,-0.0052703197029610087,0.0,0.0,0.0,0.0,0.0,0.0,0.0,0.0,0.0,0.0,0.0,0.0,0.0,0.0,0.0,0.0,0.0,0.0,0.0,0.0,0.0,0.0,0.0,0.0,0.0,0.0,0.0,0.0,0.0,0.0,0.0,0.0,0.0,0.0,0.0,0.0,0.0,0.0,0.0,0.0,0.0,0.0,0.0,0.0,0.0,0.0,0.0,0.0,0.0,0.0,0.0,0.0,0.0,0.0,0.0,0.0,0.0,0.0,0.0,0.0,0.0,0.0,0.0,0.0,0.0,0.0,0.0,0.0,0.0,0.0,0.0,0.0,0.0,0.0,0.0,0.0,0.0,0.0,0.0,0.0,0.0,0.0,0.0,0.0,0.0,0.0,0.0,0.0,0.0,0.0,0.0,0.0,0.0,0.0,0.0,0.0,0.0,0.0,0.0,0.0,0.0,0.0,0.0,0.0,0.0,0.0,0.0,0.0,0.0,0.0,0.0,0.0,0.0,0.0,0.0,0.0,0.0,0.0,0.0,0.0,0.0,0.0,0.0,0.0,0.0,0.0,0.0,0.0,0.0,0.0,0.0,0.0,0.0,0.0,0.0,0.0,0.0,0.0,0.0,0.0,0.0,0.0,0.0,0.0,0.0,0.0,0.0,0.0,0.0,0.0,0.0,0.0,0.0,0.0,0.0,0.0,0.0,0.0,0.0,0.0,0.0,0.0,0.0,0.0,0.0,0.0,0.0,0.0,0.0,0.0,0.0,0.0,0.0,0.0,0.0,0.0,0.0,0.0,0.0,0.0,0.0,0.0,0.0,0.0,0.0,0.0,0.0,0.0,0.0,0.0,0.0,0.0,0.0,0.0,0.0,0.0,0.0,0.0,0.0,0.0]},"Activation":1},{"Type":2,"InputCount":3456,"OutputCount":864,"Channels":6,"KernelSize":2,"InputW":24,"InputH":24,"OutputW":12,"OutputH":12,"Weights":null,"Bias":null},{"Type":0,"InputCount":864,"OutputCount":1024,"InputW":12,"InputH":12,"InputChannels":6,"KernelW":5,"KernelH":5,"OutputW":8,"OutputH":8,"FilterCount":16,"Padding":0,"Weights":{"Dimensions":[5,5,6,16],"Values":[-0.55661795096363365,0.085885861706686717,0.051886935165060266,0.63599988947281338,0.55967562177112462,0.38996240853954589,-0.45211145343838222,0.23762352031084028,-0.37750007824789361,0.23672912946035712,-0.37822219104614896,-0.074376800707810428,-0.19186185639241105,0.16877398281581402,0.39448768214776136,0.30189009076226503,-0.05678472982281909,-0.018251974482723039,-0.51383503272946418,0.039284961391522231,0.39779327207012533,0.080196982596230551,0.15963876476218125,-0.30222906981405978,-0.059374375474183574,-0.34737619339085796,-0.31461483599429724,-0.42991786172736735,-0.37484131852239438,-0.4097453713953792,0.27736037214850767,-0.1450725045180094,0.29976644749606651,-0.20813350064360267,-0.31555978183844335,-0.0031889413295354881,0.13690670201099034,0.51172146828325071,0.17073388620221164,-0.43572867390101366,-0.025023335348611713,-0.22269895651168259,0.29533196156929487,-0.27448115026775022,-0.19157549479934891,-0.10694852907868026,0.14468628828091196,0.34085050600186834,0.16478826637042204,0.50225660257115934,0.019233164767290731,0.21904943226348286,-0.0022179730408560792,0.029579229515039249,0.40971163198119681,0.13997018257476829,0.46463694905869868,-0.45372062318670303,-0.12238903558026509,0.09597357072306309,0.17073302117390268,0.3515085184615423,-0.026787380275105983,-0.5322738015894779,0.34776333445530888,0.140666752142026,0.10153362970541202,0.47317729506213041,-0.076240951842653032,-0.11018392266598663,-0.5284139415142548,-0.23930899353561003,0.282064838298681,0.42000240353106655,-0.40906708756475935,0.01131057929531145,0.11453166179452909,-0.1611583000530972,0.35450615153775172,-0.456471479956368,0.0069581843241406692,-0.068801118966503982,0.050506894221374811,-0.48388012970355121,-0.142596670268719,0.38038168091314939,0.18521960839707882,-0.2949390862898626,-0.29622625910163791,-0.050807952089301285,-0.28672697330157809,-0.27324433990843228,-0.11818889807499253,0.31460222840684204,-0.14004234663692056,-0.084901530576239684,-0.050986050605129271,-0.022218302622284813,-0.41520657075550388,0.047981650860480535,0.29810472999829124,0.14532872278269679,-0.21512724196205343,-0.3934307386594349,0.46112343439594339,-0.26091262176690405,0.43727131354907922,0.062041814282510634,-0.10234675431858949,-0.1807817706793263,0.40832069345708993,0.0058649933316481826,-0.29979518928826071,-0.1059123730053322,-0.39283339518210952,-0.41604527393433194,-0.29499492422929791,-0.049043622441356932,0.079017194525724352,0.42546835431504043,0.26218796568787911,-0.18425413436816129,0.16183545473570235,0.42989455998275466,-0.442661795486315,0.18514979942918711,0.42832644913283219,0.44187204385938506,0.14614867645627327,0.13555534978939712,0.4978968869695965,-0.35550338764915862,-0.18195967705250007,-0.1259643421014196,-0.32444047174715185,0.33548696604807482,-0.34605480067945377,-0.013132550153587117,-0.30255881772204773,-0.33860349597067235,-0.51685629837437153,-0.26890822925460434,0.357558496600437,0.4253371407759986,0.09209911551001794,0.29509453849871181,-0.33178838106382558,0.4450256193738279,0.22349883976974841,-0.17995032163927496,-0.14512968717367525,-0.30082312329677774,-0.32278713759403965,-0.23547710268643091,0.11500911880692163,-0.22001001391679717,0.30690853045300753,-0.15761281533701002,-0.35414264767068876,-0.28930896055562166,-0.37224076347918394,-0.69601803427110454,-0.66121786532519677,0.45246143947186013,0.10765568378200165,0.43296387798466029,-0.16448253345054156,0.482782626218709,0.022681979394839041,0.0931526730243062,0.72616860200015565,0.54270288889947638,0.026152407983508014,0.23227139335899286,0.65755789564929812,0.20153337498566973,0.17695845811577321,0.21281349361043866,-0.29962422490675822,-0.39668197629860869,0.080064157858392215,0.53298391937426681,-0.27698705304356236,-0.27628452316280666,-0.45759495039077835,0.26588828463768505,-0.35241816269213311,-0.24707869022096476,0.15870800047359271,0.16794285801216588,0.30975461562709605,0.17630496730190751,0.041734472602885653,-0.37596085880164937,0.40668419739765793,-0.6005884915442079,-0.56675357102291524,0.27916271240842239,-0.046158381359957867,0.15862580905573778,0.077578105440203243,-0.19443021540437636,0.18088383819431786,-0.09522438927549072,-0.31136349785257206,0.068086613064620244,-0.54210431531775716,0.02997739671916877,-0.34815359451390587,-0.55850917146798518,0.34619896439642428,-0.30299386639927905,-0.41420707902282328,0.42188658510480209,0.13813888547730702,-0.044437937823898543,0.47097024764338369,0.39613441777051966,0.47082459764729823,0.22435116377396075,0.3062550890599971,-0.25830641808683391,-0.14623325761088984,0.159902358915704,0.018169821750971472,-0.31886045472065,-0.11585738509615541,-0.28280789283074281,0.011572377302212887,0.45602607042448823,-0.029371564347106117,0.31808997074750461,-0.17081823019810069,0.0060502475906286613,-0.10842464062192893,-0.23255458404977764,-0.27895452295265616,0.24137521229865591,-0.48118090681901116,-0.11459555917737735,0.15060510290312679,-0.10931677134998587,0.32803698804267922,0.19798626864962424,0.39251813774816208,0.0523717450316451,0.18046497620266319,0.0092792529682498483,-0.0010093872154247196,-0.011891807783149905,-0.32711449523788078,0.016759450672809977,0.44335955256284265,0.40008518973551377,-0.41661760535318709,-0.023033592927384376,-0.40757515225801072,-0.27247595964253263,0.43893401844856411,-0.47134347911323227,-0.1939553330964825,0.29771031276955479,-0.38893456606352977,-0.20893236310403693,-0.033978107743783632,0.45660317840989995,0.34583055983687644,-0.044242935701107662,0.02529473943785027,-0.1407413340302367,-0.46219331786213308,-0.42751618640327105,0.21850910945804422,-0.0052561235394904928,0.35479670847200739,-0.2333649871985857,-0.15254418179881615,0.072285471333825763,0.20852413903138614,0.37464589825061273,-0.14259346601627848,0.30719033988249284,0.34105059851932956,0.60632356816411026,0.37184921517371,-0.45152986058186606,0.4158916614751566,0.0078109737158474427,0.1357188436397723,0.50805816925909919,-0.36810222685475774,-0.47589889884525416,0.2786917916345038,-0.38903299247982187,-0.26712330910018772,0.25705147467007672,-0.17767617918880405,0.039879670974889168,-0.26441182293418286,0.50580952367837961,0.37234957337976338,-0.12684981502326764,-0.45272511767485085,-0.27281874312533388,0.1404786857087377,-0.43016258734827445,0.15979937256546173,-0.06987610301794428,-0.44174851597199966,0.32418362018872016,-0.34954689166548719,-0.12191536889864239,0.021481780820546491,-0.1199513724485534,0.18225796253411553,-0.096184708541490624,-0.42675424283308955,-0.30452081252259589,0.18249634361914674,-0.063865755833859755,-0.40753547106283372,0.023604387673859722,0.3487654068261985,0.058555322479989957,-0.3351662225787167,0.58865576894393312,-0.050515540426040929,0.24116479722208609,-0.27622509243728238,0.45006009874656366,0.39517755111775571,0.23197058348472779,0.031479822307147527,0.18029686249314642,0.34495406459299094,-0.507815595593538,0.053397963756199908,-0.039398732329179322,-0.038856664350752822,0.0735056207248116,-0.363445008774543,-0.35741434563955776,-0.35859434603938262,0.30328998320465395,0.17198266393427819,0.24703416098900177,0.14590718096761865,0.015789939212556902,-0.0020605321027846995,0.181403945206667,0.26703706919571679,-0.20312072818821414,0.40916522820609091,0.16765297873035595,0.40440430101317754,-0.16024663427487687,0.14708917324271947,0.21271849666533002,-0.40738292100454371,0.0529328548428824,0.425331746608804,-0.17458612574901264,-0.037721439615715169,-0.30095902906852207,0.41691845745868344,0.099006942691359651,0.40580914529214546,0.24708535726830763,-0.12189236885519102,0.022749525785073381,0.24591543211535433,-0.14237402095811841,-0.026065059604268703,-0.49941415939532657,-0.30536043490915848,0.33525012750170191,-0.25099198773245524,0.35946628216962462,0.26696939930267766,-0.21427359731689116,-0.17097239516845444,0.25972086662535337,-0.35291353915878221,0.14976128519252707,-0.42825929646975019,-0.017688829541756074,0.34498480847927604,0.40536684623298824,0.29352736679941094,-0.0701628310556575,-0.0075204861111995277,0.59979468524779334,0.059724780738897622,-0.66357676060266468,0.032646388035396642,0.54320632040387606,0.28733460727804883,-0.60153640142810261,0.27389980129988561,-0.4995017794359346,0.31661562352740807,0.33659563259323017,-0.44753756644458426,0.42444714894180374,0.25297835563381488,-0.12857732630015609,0.30394674617287148,0.35847376368084138,0.026527751670925939,-0.45260120322906156,-0.36227493366746621,0.27876886311514931,0.47236411397166062,0.28750946770605174,-0.2599697496990685,-0.322837735112231,-0.2741386656910747,0.37643090777111,-0.45107060701344015,-0.10909491747908436,0.32288649917448575,-0.39559547636503473,0.36182302911348285,-0.60907531453897057,-0.407595599417486,0.25616881167986794,0.2748416460832428,-0.016797737080464174,-0.0992031589272349,-0.28179502494009634,-0.55535468351227613,-0.53726091837402756,0.24473604357691259,0.21638451637174111,-0.10373685850242917,-0.11958156919835712,0.039727756727077332,-0.30016066270967084,0.42480494687162823,0.220322783714479,0.053944644614570672,0.43037261390554277,0.023863663847445957,0.31038540208631438,-0.28587288269906991,0.1334847760127825,-0.34299174148721739,0.31719758297466777,0.20191856060026228,-0.17521242814606686,0.37482131991072259,0.49897854989475349,-0.40777990012590648,0.082347175024669372,-0.30322285361456885,0.43746035602356681,0.471315203359645,-0.28918751710621587,0.47220317435825321,0.5004295456956086,0.1229461750768428,-0.15489360855046627,-0.050236402840796182,-0.30785771110459131,-0.49286331041746223,-0.43244308604239678,0.31868130727906413,-0.45263583316572603,-0.38259883118022009,0.26582457717197583,0.069142860130108341,0.45413774427750331,-0.5084654337510004,-0.057667631190828891,0.3479416889719163,-0.44403692999013783,0.20939906405450373,-0.38348519470088566,0.24356647957779207,-0.092195639936002452,0.15471918096812967,-0.58743842754345954,0.067809737526074221,-0.48207932030286854,-0.25132606159392384,-0.52620900207999188,-0.43754508537234954,-0.24944361580486746,-0.043719771725233447,0.028461876379121408,0.10328590529760243,0.21075130168870718,-0.060506528125404517,0.3528827638777764,-0.46340077968672672,-0.039515109283263954,0.085666883661763518,-0.21250585384310386,0.23070933943257782,-0.46074018443268921,0.26958617550085062,0.4294142154150562,0.18185434188961258,-0.30059008684357696,0.320048434586278,0.40765596271180354,0.52120710791787273,0.087007847540577943,0.27422127616862557,-0.29631646747671764,-0.45231290342237435,0.1415178196963181,-0.344079233389502,-0.26867409708081763,-0.44340064437592736,-0.017504181137027203,0.012269172724791904,-0.2285637404254523,0.23901948651484276,-0.52368664815913879,-0.41507394187113877,0.06912648646450599,0.1033199323919189,0.039927824015964793,-0.38954443606485573,-0.58477254147214552,0.11986588526731144,-0.3331183359979078,-0.12005596437020921,0.017350634666655713,0.031976352426971721,0.15594855734802085,0.045276289117945283,0.34929464751432776,0.29377727887743676,0.4115034443951408,-0.0372681769214554,0.20369623534713177,-0.072127170160768667,-0.026235204880944135,-0.32248862711187487,0.13351824537314538,0.18122114925823532,-0.072085494787177323,0.071062552536692747,0.56978278796438253,0.036397422071082049,-0.36537968863218245,0.31844586529838964,0.096978067269145846,0.22122665062172728,-0.39243111729177194,-0.19286519396792262,0.22132422817736297,0.44841898660457041,-0.39612622729479374,-0.18666892338775865,-0.36010978221406426,0.53125217303408112,0.27176352634986956,-0.28049240726630947,0.35465570441982719,-0.29375149501411185,-0.24744411330769264,-0.059079159617260076,-0.12035020467069132,-0.35644683132730276,-0.1142829729254501,-0.01543376615859208,-0.41637325605412623,-0.29369646807629068,0.48727140148593678,0.45724566617365586,-0.20802697352814256,0.42270022870160451,0.0822506595566147,-0.36338020817185906,-0.21923502535854814,0.43194218509812804,-0.25852979242216317,0.11136193697746054,0.22227537079274409,-0.045508507876394454,0.37592546397379817,0.38933713351200927,0.15435182785457874,0.039786844628430885,0.39046725984516761,0.48264367219401533,0.23029634050156442,0.19219675113779014,-0.16295737799194102,0.1021023279309812,0.12131734427872942,-0.25372311267198755,-0.097403601960717942,-0.07625443319183256,-0.17403115440883252,0.35388795325161088,-0.32406572569158509,0.35410975782744375,0.63976089376907552,0.08503441562193835,0.31604729176040386,0.1221890768970982,0.38897257293016685,-0.20812594012764507,0.5665840178019097,0.4019843866995243,-0.0724832952105176,-0.36330408065241621,-0.47401429022081781,-0.54214980426765547,0.077647004502196748,-0.51719752901402671,0.065836637129172482,-0.14136225585703852,-0.24689594481510668,0.10056365103492593,0.54185215828345989,-0.38252370295449811,-0.098927728849585672,-0.0996561564712089,0.46701950343979587,0.08682699356043394,0.24902121072004377,-0.26014612667681375,-0.38612941607344925,0.17759513782387862,-0.049757416606655461,-0.21249854330730653,0.31828763838712609,-0.19787230236433648,0.021744454512956729,-0.25027981143945621,0.31494934983858258,-0.1035041735576276,0.36594360172172236,-0.20688554367249656,0.43599099288104004,0.037545792123004372,0.034271206783758973,0.5745257444172529,0.025694804803119978,0.10792540566308087,0.20821941859556548,-0.16042243769891762,0.42036641048546125,0.18267933597271002,0.3622610140993352,0.30532329033487082,-0.47723722938242696,0.28393515462202579,0.531673142597195,-0.2148495749441445,-0.22362458976387858,0.018713103657047266,0.065667352339135412,-0.48238074752398191,-0.030447913255748867,-0.13560930460828743,0.42675167720926677,-0.43586051874434428,-0.54848524218495509,-0.51337159561601187,-0.16739048071934709,0.29345266630547245,-0.08502368435599672,-0.22822650616809503,-0.11103339581102888,-0.13033585743146714,0.15920206358290159,0.4165536753135447,0.031869354260502351,-0.013128822565605065,0.13835242618023658,-0.13879784123580494,0.3099468450895041,-0.24284857544043426,0.24695708727973947,0.054945901136295182,0.023691406480652176,0.11251406550366955,-0.34130491992641221,0.2881712333149028,-0.3357765251771237,0.5246495052553789,-0.039260691873466445,0.0776462731179204,-0.53963242740436179,-0.26970739811766875,0.1784763952156774,0.34910965455986848,0.32951329094684673,-0.14634286812005487,0.24831718319926177,-0.090300012341828662,0.48555516056772391,-0.055757243885987261,-0.40731763962701129,0.44893260855581718,0.23416410436109442,-0.071024488896458987,-0.21817368590383665,-0.13909716957259163,-0.32281023338973419,-0.47398968886872045,-0.32546196595218013,0.0348113499724925,-0.099026281726038251,0.21846030505103392,0.09878550194883956,-0.10689562251940984,-0.24484769587636909,0.21846748514844691,0.2000997222372517,-0.17538579915567759,0.53930624923967752,-0.24450176427475148,0.21280055511655743,-0.1560587440309259,-0.093713175204688068,0.42825289314327736,-0.32434411480175873,-0.37379806824517064,0.35185286943351268,0.38662841837374279,-0.41841656122399618,-0.50963991461058933,0.42319686828885267,0.018507049448817311,0.15496627675788532,-0.066165438722515221,0.54405705010721261,0.4916127437815303,0.23012129868771364,-0.41542664724809364,-0.22436722204177906,0.22480795261234693,0.12388428165090928,-0.50469804803269713,0.19167046980722163,0.26891700947977931,-0.42053800033075361,-0.308384684165029,0.066703759386270128,-0.33196563977294657,-0.07034807575834609,0.28558176250335771,0.051862449307597619,0.028297033476631431,0.013105134533463621,0.22335949019308524,0.13454494994427355,0.36623403101195562,0.20084755085044459,0.48132255626712067,-0.23688474023994319,-0.58854645557801855,-0.15720276392510682,-0.50544638065398861,0.085840472557497965,-0.763466142119198,-0.16649615710993715,-0.53129164811253116,-0.40431286903312247,-0.36512774073407439,-0.095062282266538012,0.10828610905364036,-0.057769064487114906,0.15835127007583733,0.44443547163660541,-0.26234917288083803,0.12030725684588545,0.42551699445764385,-0.0099521359633461433,-0.0700421592620157,0.12889524714796927,0.22186915137654903,0.010584511881746323,0.12535089559462168,0.011555449738644049,-0.19163870797896471,-0.22309991631557236,0.024014292263242591,-0.428969557858454,-0.46500061454177821,0.33244634227652581,-0.37652053349155545,-0.29406129906012923,0.31665742776574535,0.3421198320864805,-0.31202414052025312,-0.16850659593472805,0.0071046011823779551,-0.25362008856272228,0.12711476350292536,-0.4032792343504365,-0.333873253721194,-0.33551310504076393,-0.031210416924285073,0.34598954692982531,0.38814981320383957,0.11708712069266196,-0.529092042527631,-0.26145582672934509,-0.46905326549246912,-0.55651661787399576,0.26792832456362,-0.24295358933877834,-0.49632564961767334,-0.29922075939750764,-0.0784960118678822,-0.041804686868068555,0.32877728550339391,0.084224363108467953,0.20898511064602737,0.51079273694697314,-0.23813159453742905,0.53365387713435752,-0.28951584086605181,0.0031568189086287131,0.041838654604020475,-0.076587156990146635,-0.0621867930513255,0.39478180633202903,0.23538811672712159,0.4965071168335557,-0.380776190248784,-0.038415194800999253,-0.47629684804425343,-0.15769401411063364,0.14911265765143592,0.082134460952497129,-0.35462823107478497,0.47198653526456757,0.17040292766641163,0.018316586330619146,-0.27164354035647831,-0.22380549464593721,0.53399026245512793,-0.46713261506665832,0.437151521911246,0.428094629862947,-0.18337857424475887,0.10957618585365206,-0.0008161266498490805,0.49517231430330605,0.25130195109330794,0.53339462644455027,0.07654767797234209,0.20913520317176168,-0.30894440828141967,-0.25817101628872868,-0.45859386206839442,-0.45490983025391307,-0.1596640085916754,0.12372851026093265,-0.17721240113462952,-0.40519878285967381,0.02577501784292658,-0.37698809690299473,-0.52708306336067845,-0.21627872634140721,-0.22485173411841145,0.18898792504016312,0.1275736112916932,0.28918172804937864,-0.28394931014109476,0.41283687977126665,0.40196722632736054,-0.36722322349737235,0.22641422616642618,0.4837921627625224,0.6145728772070691,-0.38904502026326776,-0.054181523517257309,0.064373619691370842,-0.35930589966389559,0.28381506786466831,0.026235120623313492,0.33570188238957605,-0.037527206363411385,-0.25243871615073632,0.59835211304163927,-0.24518785390743808,-0.24925340363195409,0.039293479397319683,0.14447318713655802,-0.17832172528837917,0.10976986664437996,-0.43575987772331221,-0.23168473353650537,-0.30235707952260887,0.30562734865224206,0.30875227960244767,0.46469596224488913,0.10753548696360359,0.14266309485322445,0.21693760702341963,0.42709347896829708,0.16916756431025107,0.35337506620667464,0.32109039548720419,-0.47402755213714931,-0.036008280649255771,-0.42425181156709663,-0.17031868274693623,-0.24162849418725824,0.408026643990016,0.20430901855356407,0.42136651587864604,0.047438975033272338,-0.0051340885475536875,0.0639547764779549,0.41953354778560881,0.4709473041104944,0.38689132403610949,-0.17552350453508256,0.39481745433060056,-0.097912769353458676,-0.31005725171343529,-0.31995952827630941,0.4217074670282715,-0.21124025676514574,0.27925249524533219,0.29651618422548803,-0.0312163911801926,-0.3527614211338741,-0.31397761110012523,-0.45530294327101767,0.33645157492101008,0.49947031408677567,0.095618760852041726,0.37501181016242491,0.22941569359258793,-0.43886500888695473,0.17097664638198357,-0.2717251314581694,0.15486028697112761,-0.14195607618384437,-0.34966881446590337,-0.10400824164711897,0.27410048753741617,0.25123144640219675,0.18019743774641867,-0.0887798559447788,0.11856320150503323,-0.052956666914000326,0.45008064543383863,0.33150245002673295,-0.4390446060213945,-0.35983051412054251,-0.049136960352204953,-0.48665312632641367,0.32227219541591973,0.053621359892472756,0.38624917015192872,-0.08161147949733609,-0.52623696252658692,0.12224234417753983,0.010551908509529124,-0.39581326283955787,-0.54182688999836082,0.21277788185477342,0.28483541559348086,0.38616538159934305,-0.41498013407530587,0.29412151662925007,0.36317940653902753,0.25306173478260507,-0.19015660177675,0.337884624348188,0.37459639955467011,0.16742809734981864,-0.37411912499958538,0.24129021736133754,-0.11921703442348744,-0.28068341417563031,-0.022242518413561462,-0.24504568617419853,-0.35946531662257941,-0.42629980914897614,-0.3240974222850081,-0.31568274142065256,-0.56531866687010479,0.12109206329241154,-0.10047913941344613,-0.20940759167010825,0.38029802457484019,-0.31563202696387727,-0.4806356898350681,0.442946227044106,0.38546908461082607,0.39150772722643673,0.19628764137743313,0.35406466995995217,-0.27926369443785992,0.31947013629777404,0.34836824283325263,0.21602937951748644,-0.14098316284486512,0.31045658568168866,0.021677163379190803,-0.35952842634344689,0.059087854000001189,-0.23869284426213566,-0.12875991249567823,0.39177073487275649,0.36297058440702318,0.48173036693808358,-0.34340030754505235,0.23164525456749463,-0.46376067174820967,0.23242424263590467,-0.039442649385197565,-0.0323315652948545,0.41361472709436947,0.24672254601739566,0.31080543835706059,-0.33557129023724847,-0.038264653188746556,0.21698411185500105,0.31502971520591289,0.19093444778928373,0.20321063841842574,-0.19779355498962847,0.34386304396523115,0.34384210207190485,0.30981887576065559,-0.16444761005004896,0.11051200145707243,0.14864398890494665,-0.12594669819546364,0.11580466369748631,0.4782311075448577,-0.098744892484641883,0.049117204636069257,0.42924055842092446,0.049280668865324659,0.3298518615278897,-0.1301938500004598,-0.04137540838534795,-0.19265664642510685,0.41681507579103277,-0.32003398346735706,-0.16618400345019418,0.40602046352745591,-0.39851938546979271,0.054929484129325232,0.031484033376424587,-0.31131114822169859,0.086115774608052337,0.49269248858160974,0.34348418009708404,0.0096583382636801982,0.34070983913013281,-0.28249374306101538,0.44659532059668927,0.10195378351144063,-0.19696788019572362,-0.2674415055717615,-0.1437762963934083,-0.58678512449360432,-0.07793617057565555,-0.20361679499235369,-0.27612500340932022,-0.42103785920486991,-0.41162951490709754,-0.012914362350956728,-0.31930956359937995,0.50477007215136627,0.516310107523141,-0.26350822605113894,-0.33979708402727438,0.22855622567277351,-0.42290458239552575,-0.13722622220085792,0.2067706519796679,0.015817631298439092,-0.18979955769210222,-0.12586714965445403,0.27243609097160293,-0.20943806413085769,-0.019777107205757621,-0.205387904094727,-0.31893965448832873,0.20983631169623368,0.20726363509263146,0.0063036646112267372,-0.12766228179325628,-0.12429426639718849,0.16192301638813311,-0.0092822318592714077,-0.045658926612995858,-0.20048065451416564,0.26160340284649442,-0.11160331109870117,0.11884045151726398,0.15237456772748528,0.16221826340123449,0.56788333652111944,0.18626563117850795,-0.24093314600587371,0.016147901695432666,-0.086750706423467466,-0.36868781377637255,-0.044431190217287961,0.35218119527229969,0.37375586512719416,-0.27590088705226695,-0.27297880569487681,-0.32435428281970397,-0.27740454926940322,-0.3537404570471846,0.50310243298490187,0.081960120167596864,-0.34542866911917475,0.10802310459505839,0.0828381674972014,0.029859764160626422,0.48733731750739628,0.37989556435033139,0.56570471350993357,0.2739317619562362,0.19272186450863135,-0.15414599256870717,-0.024067751932369357,0.16803221048180142,0.25814231996434128,-0.534331256943278,0.10182759536636288,0.26848445089924233,-0.22866438042682508,-0.48339020193681009,-0.24080770880690874,0.15907962267866704,0.12814054195358277,0.33885717825512079,-0.42946672764281407,-0.36194809425625157,0.089493934276064321,0.30446586587640478,0.16658968772392346,-0.29585467559427375,-0.35886833131169765,0.50271517084936612,-0.15953352696895792,-0.16277126748096887,0.037004707148501827,0.23556238242983008,0.232510445682703,0.32704658680078469,-0.38973101325776371,-0.29347946531395164,0.2079153985883368,-0.19775466643897327,0.17925182251915386,0.1001827010479284,0.13962827603770928,-0.46122230314410922,0.0452180142600331,0.2385548067462073,-0.40668076036891149,0.23654445977363034,0.10110782670687066,-0.066789865048919,-0.43564258935933886,-0.28757019789900168,0.27455907479020364,-0.20870840559340997,0.43283041626879665,-0.21256990832250675,-0.025066003879211797,-0.013600276620691434,0.34512521699057552,-0.27429577563872121,0.48242297861297317,0.17886429749749533,0.013560583069877138,0.45146260722147197,-0.37809913764993419,-0.3601531231314446,-0.2227751954419164,-0.48635650650849216,-0.040327590585138233,0.31637063732193293,0.15587792122204089,-0.36696761998811506,-0.2804327434454455,-0.33811816334535572,-0.34791376867674123,-0.30833365950621527,-0.25480232639999245,-0.51476641946840218,0.095660076690185447,0.35199488352772978,0.1725793758432809,0.3845198796576404,0.13980800742069394,0.1329966117917743,0.55069702302097945,-0.38873355221446565,0.037729130805936512,-0.27081664478495515,0.20193503944096902,-0.21280254613896074,-0.41514802204790624,0.022669682408654031,-0.12324267563138147,-0.059705314425114675,-0.24619806758185703,0.33586859828676113,-0.58751553582116334,0.26425803310271956,-0.57448858618253218,0.033675865071362866,0.11748570844568639,-0.30017009271020745,0.010179263697864005,0.089875132317377579,0.292988952424481,0.61897581628119536,0.68800460304770261,0.42145284618729056,-0.2668880528679769,0.33336602425742662,0.45037545429705328,-0.00075476215082667208,0.19759747344762862,0.40368754732292889,-0.13542640500546016,-0.49252386301108886,-0.23949881965672959,0.353338972683047,0.17885715707119376,-0.67219549152924218,0.24372513840971405,-0.25403034704148464,-0.31706070317772872,0.20079605990867971,-0.2083294963660019,0.5684785406565902,0.39829442908997942,0.31553987556723267,0.17706969490730529,-0.45534923166736674,-0.33159697359298029,0.12054981584968914,0.55497594417244089,-0.40349215896209611,-0.20210331691309763,0.0217710774128579,0.0021464853492822564,0.28225238546592457,0.32449501343945808,-0.54467004088962734,-0.51645416206978845,0.24194220674927847,-0.4599052910991403,-0.4954591200933755,-0.067600966036134649,0.42692294062705033,0.41002570471589378,-0.13328288055938206,-0.56562620500526573,-0.307064281522135,0.22928719633705558,-0.3867758167814157,0.43397532217706364,-0.67638004491544568,0.16989605553135281,-0.13620471665549275,0.48929624926648829,0.097637531572941708,-0.12365140792231096,0.39707799046556008,-0.24890138806815579,-0.18428454591185609,0.49438675984994268,-0.32921218479401471,0.41599245666583573,-0.045906904379207386,0.029466682976579971,0.40428055155887949,0.32115245290433841,0.49513008224799843,0.0060116162609371616,0.20687429729257559,-0.21116178855035564,0.44032578690487545,-0.46086368072891526,0.40278745377474146,-0.2021299480373355,-0.33786298138423204,-0.16281870362484935,-0.12083247647138351,-0.5439507164940548,-0.16042070350024665,0.10637086251759031,0.011779186576989767,-0.085769103130371865,-0.43251660082136451,0.071748437323845976,0.50110186338879459,-0.20605231576134597,0.44802908185961943,0.050035980877756916,0.44451653985403289,0.0069254513023571385,0.57145778562664162,0.321477160866857,0.21949254962178882,0.44252958251974517,-0.3596798286399871,-0.21731571120152857,-0.53199307153275122,-0.0878288510114311,-0.24620079527903555,0.33242360779944441,-0.36347093701282585,0.1582303029888161,-0.29687241552138321,0.46396814257161761,-0.30983933760086896,-0.41312462639824421,0.47867158550508515,0.073746469261566944,0.4346967824793731,-0.33013052886234395,0.25543305662816829,0.36592859786065685,0.55247823766308457,0.050151397068040643,0.004207719675640164,0.26693668121873393,0.32621870392291591,-0.49187685316273905,0.0071173594881581651,0.25104602027115874,0.34114042648624515,-0.36045399278769596,-0.044982978822408239,0.53779325360037089,-0.22430305878136084,-0.54610768720977165,-0.540897139284193,-0.714616777870839,-0.514590374450135,0.37806597010886067,-0.44327975628688465,-0.75160997370334315,0.23366114920354539,-0.16857068788563287,-0.05818615290197722,-0.091265464833565249,-0.70913236691876813,-0.60794001225066852,-0.35838569404230408,0.35631770451722428,-0.3497994923907678,-0.059758206501874363,0.10443280479409349,-0.015891704037387384,0.020466561475300103,-0.4613103654961086,0.30990865917904215,-0.35001712885963215,-0.3203864467327131,-0.16931749429168269,-0.19901662862716082,-0.46522419281562116,-0.36169800849699113,-0.039447054201000545,-0.42337228341726935,0.47750644958294614,-0.23735770908413068,-0.030053419338468758,0.2483507707899511,-0.38575519034798439,0.21373476530278721,0.2175199961026856,0.012100350563573361,0.48227921738291663,0.41365659163739221,0.17464078290647928,0.24099810011278577,0.031460895545216673,-0.26839537682558751,0.40250845864262913,0.081555360156676152,0.13770419892537505,0.057017984381454709,-0.075814170033676839,-0.28387259222944428,-0.28194928883289722,0.098979551077245848,0.293961213220016,-0.23593850912701561,0.44457830927344177,-0.3399686128583243,-0.46066603870924389,0.36874203205470663,0.25353203126830587,0.0918639070536703,-0.33146709091097992,-0.49567169064103317,0.17346849630174485,0.086017476964724435,0.083214866554034955,-0.224896098449673,0.17962179244006915,0.038017616771575724,-0.17554044212050657,-0.26586881783450306,-0.021391051844466498,-0.32270022595914805,0.37237344545171414,0.315481828864417,-0.48064587840743878,-0.10621630168022223,-0.12678732636701887,0.41338239169130148,-0.16376728599452237,0.19966395466994916,0.55056183438673478,0.14976390648483806,0.08648676602075768,-0.18608804459917061,0.47934508908722639,0.11337470828069569,-0.035457726158698424,-0.19073529464116576,0.45258304570396724,0.59574467888441318,0.21136936379782595,0.43856268779368662,0.41199928058832513,0.14697327887786388,0.28730408206034863,0.24316655936599357,-0.16566263673913029,0.61391234156376118,0.24988296068923455,0.13759637985869788,0.53621167620535537,-0.1382101748691365,-0.020762476919145859,-0.19902867417753833,0.3142739106846057,-0.32263017191826443,0.21660153315566513,-0.65131961130300586,-0.24409437599440614,0.18660109053142848,0.37323129534306226,-0.42023349057531612,-0.1087216871949681,0.56095814176390579,0.33984789175418695,0.35630179457199795,-0.20088629199148028,0.013300167032107759,0.29720290596509774,-0.23962214731695383,0.3596666402529185,-0.005324733980230317,0.31941011640663591,-0.12499902342964228,0.16710778096415435,0.019255757899836266,0.0063516952447567679,-0.023267141936107343,-0.31950115981530258,-0.15569935483772301,-0.29729501706602773,-0.039082741147764943,-0.33859353845800622,0.14591717209602037,0.23934740353842798,0.12201999749285451,-0.56823953029641294,-0.35147497153602292,-0.13353006679572882,0.37291231171017664,0.19519319745852218,-0.32201481609360838,0.33450927780088457,-0.27776533834011019,-0.25614299302474425,-0.17612474954847648,-0.17410132817421598,0.22731733640204091,0.2009852001196123,0.33681475538900607,-0.310017061514498,0.1940909094847092,-0.17995074579980194,-0.0086778331206646825,0.22288242664796085,-0.230642482362177,-0.32636003279840953,-0.6189266241448288,0.14274416125522427,-0.15703794180010178,-0.092776721912564142,-0.524155153063374,0.092852044846778087,0.42116573814207264,0.045253693864097437,-0.22800729150285348,0.29169570018898577,0.022051387439749607,-0.31372585712838669,-0.25777877861703952,0.335215693687191,-0.242277087162597,-0.32401542374278441,0.21934771026699748,-0.12169656477697062,0.0097977209005635831,0.23319405596832213,0.30617398703675808,-0.31687837446567368,-0.278367470634927,-0.50904677707786372,0.16035917015070117,0.19832100948903314,-0.23780805265693733,-0.46093895952485336,-0.17209962085151037,-0.50414048108427245,0.29900161145437004,-0.39863857322901231,-0.18018831414693756,-0.46313371180332574,0.3638759497470993,0.28740833393266241,-0.35728420122390853,-0.27263045156280569,-0.046311673708696564,0.061247557537805059,0.567248618958275,0.21889448330275393,0.24264094368854025,0.14742615606551762,0.26174352033762655,-0.010476898537899409,-0.1151530358788173,0.28451166826365731,-0.48711888061948211,0.052276105196583746,-0.041711148589194579,0.45542280276335978,-0.28725258503589979,0.13467288828861,0.21867785073910265,0.545245719908981,-0.031642483951727154,-0.25063541044033255,0.26046975209568479,-0.033610849687142896,0.13414495709856134,0.37511122542548919,-0.56123389199942686,-0.37329864146094144,0.41210947956263838,0.0994811364737417,0.38362221334794328,-0.50368391321649642,0.27848427805574066,-0.12237896928402263,-0.34779188175555914,0.14952370066386381,-0.4641256109287818,0.46981083917228433,0.23801494694659911,-0.36131322359809237,-0.13447065564257371,0.057318288091075482,-0.37723549712536669,-0.21194969761861784,0.050067646745300426,0.00071611218047005619,0.40041727592627036,0.18621892125497253,0.3071435165175796,0.61056868922686147,0.55987743677756552,0.056364696312294467,-0.06028347399154621,0.49792809398463012,-0.24279920606226468,0.25015925178297171,-0.14563246180763487,-0.51515905058242129,0.31942085644860091,-0.512931107932126,0.092940657445762173,0.11559254100310443,0.095216084195618736,-0.38680060110212505,0.10062595075350617,-0.067493138582510492,-0.45330025533468804,0.048167907663378438,-0.1193344564479632,0.33622743568495828,0.48563959805209905,-0.33765976029073952,0.3622808277862708,0.16151779902306296,0.27719711263648561,0.48036479699067769,-0.54425725866757213,0.00063465405319491214,-0.3766489513973667,-0.22395375148952704,0.46453178028967979,-0.41162646526204122,-0.1071292811856194,-0.53165768967234106,0.104754314979837,-0.26285272171433527,0.040159377388601522,0.41029717482865652,-0.30680338819883035,-0.18123278718656993,-0.41163306294069463,0.38943659061743946,-0.49308540731023431,0.015480765551575522,-0.15327269644433897,0.0753890154690913,0.39712156385742114,-0.50140556849790618,0.093703286325122329,0.48270926588594087,-0.14001437857016194,-0.1726793023614274,-0.09562670675939336,0.44850709710238351,0.5201162656532794,0.23700492168111192,0.10324461435973421,0.2884437254669977,-0.31189641493021636,-0.30914031203710812,0.14773349812191591,0.3415149101983449,0.508957008133505,0.19854294513957357,-0.28821213413166746,-0.058322329425432716,-0.45765854445612014,0.089235241456608438,-0.022593525981217145,0.046630243723224385,0.48958045782964371,-0.38997598342162404,-0.115061581406662,-0.50643741049293067,0.18649507569362941,0.60071642397874214,-0.24524635465498318,-0.12292147286156024,-0.23103014199870711,-0.5659497047620714,0.46178215793873351,0.49897905161307327,0.45015144371131793,-0.31619217160958185,0.37626525965150553,0.082998580305422481,0.30541221653926892,0.067827288405386543,-0.434105414994685,0.4420071509447665,0.22973365998183207,0.39536686133369958,0.035126467492751536,0.32222446719999609,0.046518830505419891,-0.14172328473361376,-0.42989886098424923,-0.29124599805697321,-0.073192073062546728,0.31045852657759,-0.14048515195280517,-0.1513298689012309,0.089878583475898152,-0.26040602505998034,-0.41050361190480444,-0.29201088769183048,0.49158524958652305,-0.18382254690204153,-0.17117887694057479,-0.33271442721879169,0.20859228033198562,-0.079610133869738933,-0.1077841006953081,-0.39491683693738661,-0.18353976408674302,0.29934988361975573,0.41594018915998304,0.22963302782067555,0.17177615806565313,-0.0178667458919527,0.14759659643419215,0.1287381480635289,0.077599659525384432,-0.031631874674772784,0.25447210083471544,-0.47798699870829847,-0.1100190670814284,-0.081241425205356668,-0.17935138315662927,-0.22211648617076085,0.3922692532846862,0.18067987798869276,0.28000548354550381,-0.13841617810781984,0.11961122080630314,0.11164677635466179,-0.28123519505687633,0.0786035474286869,-0.492930033716665,0.21725185903289168,0.18021448090430581,0.046667844205529163,-0.3884802251189528,-0.56747293384139275,-0.23157435196024254,-0.30080342931365378,-0.18254975511119809,-0.12265158716211791,0.021331179759926971,0.31268128482929758,-0.2225653912679891,-0.34468227133713153,0.19057518490500441,0.47805962925916773,-0.2755603602304702,0.28191276761515882,0.13946688563661402,-0.36136660904229778,-0.14089678029751213,0.47830077629532491,0.25358520957125985,-0.13229297544301094,0.36890748007419194,0.34553328916987752,-0.50287477557630467,0.29380248302657469,-0.0049027127546130691,-0.49385597289683109,-0.0088808318456141937,0.2101965277594941,0.073745334984138017,-0.17895827501987319,0.071161790417074045,0.41810923655229626,0.33118192238658839,-0.32194604586653053,-0.22148488810629202,0.093124794386957255,-0.33923845720919715,0.0323820469900451,0.270737672099044,0.37085046163254054,0.42089487476818732,0.026144501547218972,-0.47819907260427291,0.24086296502394644,-0.47012776762776987,0.38352202013446612,-0.32043226112816064,0.23000876178909335,0.29142308635748349,-0.38340829351322858,-0.18220757865493814,-0.42680156604755276,-0.59182108352671536,-0.3357268164769035,0.00034332667518864542,-0.14822843068293315,0.52504023492551555,0.062895300812684851,0.22059983803223926,-0.450257913039895,0.5388034907893321,0.34732718649353628,-0.24106043834224547,-0.47864934638618495,0.0230316737998485,0.299631493048578,-0.3132923873819225,0.53692469933101439,0.02718081253012113,-0.42537435469817036,0.68183588584225829,0.602471805744382,-0.12290266725137201,0.50844056361384771,0.064252248390463784,0.068096644587387872,0.5269798077601342,-0.12776050143362602,0.26562157948996451,0.020206540763591685,0.47307831417157725,0.25904717980207709,0.46689773830574627,0.078709439680060861,0.54557763609815668,0.0992658100206809,0.39696498481848647,0.18685179195546262,0.45668704008809208,0.63811440386043694,0.18105540130661016,0.24044667579467155,0.32050287398449145,0.1970782528858972,0.5549014251660932,-0.37968912334151189,-0.28224975052431911,0.42404059032145092,-0.24835664923029976,-0.17157590227798128,0.35980859260814513,-0.29976910858674488,-0.26222849553460031,0.33245323665104537,-0.29043489922355559,0.21951050871231823,0.67064438900197476,-0.30618409408805558,0.25356477572842845,-0.28401206976079391,0.32429751367198778,0.4596989203775147,0.45519777446378074,-0.24357795854787803,-0.16532488849697921,-0.097930566921335324,0.56213086740903806,0.4364586583991224,-0.28597030824125519,-0.34906531769438154,0.45617546786610985,0.10859600669177595,-0.20687217928031529,0.11844934892396687,0.067840669668874837,-0.18484938031533932,-0.53338445890024977,-0.13353346661156107,0.34368503571545922,-0.21065762307775546,-0.55030013130133149,0.21442305066766493,-0.60298600372247724,-0.090798476979806933,0.35503098737169952,0.2200800721382068,-0.14185132855885735,-0.461647104932803,-0.22954039546313398,0.022300367506818592,0.099187180757629126,0.18684329412401121,0.23466863158309512,0.083375876590779774,-0.15601001312075485,0.29396772488567796,0.3056412882798219,-0.04697530572900576,-0.19335260676287383,0.29273040353001067,-0.18263335852090415,0.070696982124454535,0.26603666603808329,-0.45091538909098361,-0.10835796758136562,-0.43186035135539719,0.39009879438616824,0.092945791931352509,-0.47501560014531,0.2555405808651644,-0.14993331603190202,-0.026906879291894916,-0.26630499318688977,-0.141861393287976,-0.48951877079446382,0.19911497093878897,0.19437439120927197,-0.25219529164224946,-0.28412421829303003,-0.073437581295201559,0.26995665317052864,0.23064753798007265,-0.073035233487825868,0.023071088674234987,0.070689831054019686,-0.17693048150416152,0.3530262432406856,0.071240632366435852,-0.34722306325035879,0.17663652961107657,-0.032916162397525726,0.048474526867703815,-0.51673951042054556,-0.53604159206340452,0.39158455517083657,-0.039849576725445451,0.49274183107913849,0.33790210872679455,-0.49668569339296942,0.22579705080983789,0.34691181763218443,0.22401201044218949,0.39224099522051686,0.018482283323743232,-0.30222798125467004,-0.45888077088071116,-0.18566488790752306,-0.21442539103238048,0.0969282436143207,0.3589318013583126,-0.16807311988182805,0.12862947635889954,-0.33006250934749043,0.35793984831154046,-0.4072936650476181,0.14400135802108743,-0.36328843251329629,-0.27790813371275574,-0.03364171969239374,-0.4096956080466666,-0.17416895079185832,-0.23605921688399983,-0.050640863497776661,-0.018732393122203747,-0.18256881493803673,0.3093549606719187,-0.18604550878003009,-0.23954372942713742,0.12368750512694583,0.080251924411427214,-0.095929177826051218,0.12928208166555663,-0.31279766702095585,0.15043734323528796,0.32043286504243895,-0.58579392064427893,0.264287201728312,0.30706204793324177,-0.26582391236625064,-0.048673363677325665,0.29732410506123919,0.031821481811902773,-0.41587283589482593,-0.24033899812425896,-0.17363698523426385,0.38508335353425166,-0.10081294482898932,-0.11869571305725545,-0.34924635323601061,-0.063387686058693951,-0.072158814515987046,0.19510435801543685,-0.10471355175659053,0.62859475913877061,0.19229162482247733,0.055714729411183932,-0.47367760846199719,-0.20269447001213684,-0.20488662482153786,-0.14567397711734972,0.37159719030620014,-0.39431274098012076,0.2004743126718968,0.48361071017942181,-0.44426744163732645,0.071824668481910159,-0.085941471866314539,0.11985798725849281,-0.34185040304405695,0.33522913575924818,0.26021980123919108,-0.13799770920275456,-0.25418519896508196,-0.32413836808407787,-0.38745145618052235,0.077401975331139489,-0.37946468132719291,-0.29898931485108865,-0.3608353230227766,-0.15369185600944049,-0.16425763693103163,0.3566808564367282,-0.39743163371654938,-0.18130299770014577,-0.1013008233544596,-0.42756328308648545,-0.16881368258786481,-0.41034324320405019,-0.41938065231317356,-0.32888287579840481,0.50940533475621641,0.030550778445042396,-0.0070636504514125543,0.23224151663074372,0.19100037931276423,0.41798038794743547,-0.399949045190287,-0.17161863568390826,-0.099063151681847483,0.54717240687717617,0.0094937469703645569,0.42081938681949832,-0.12893327970874596,-0.28003599019070835,0.085009457463468385,0.45781769989904242,-0.030372550862213455,-0.35880268732776832,0.354826534195596,0.36808556079742044,0.0415516630980312,0.5357171837568997,-0.34566393703316156,0.43552364055304288,-0.38287784306546729,0.41052898129742377,0.42163058654510949,-0.28034832793370107,0.00286990277526846,-0.539468408880731,-0.36924023619268248,-0.28662043372620633,-0.13195262561402957,0.40251621890717026,0.48522254241751839,-0.27258007172363929,0.2902209167904537,-0.073366078826019546,0.088955726782773817,-0.13592221202033325,0.080106609680307292,0.32491083975294205,0.22406828049738092,-0.37207352870166238,0.38342150636222083,0.0099406990962450353,0.205422287556213,-0.50263036751725387,0.36573016230176497,0.019746182200388093,0.1908015984712966,-0.21421429679053378,-0.159906070898089,-0.2045346114500172,0.23159132907404961,0.49065014548720115,-0.17771898158737567,0.11558655091874355,0.13323405169902253,0.39459311720964374,0.413578044390422,0.2816556169991577,0.31481319506650879,-0.12234430747314831,0.40324901904911808,-0.334866770001698,-0.082285582149006983,-0.13674769373024648,-0.506735195897192,-0.40408185550090681,-0.45459289813469989,0.47639302946280204,0.025839544159795873,-0.05744692823344439,-0.15764867987183653,0.0472507473862967,-0.317014495764921,-0.46370402288516593,0.49564114020321803,0.17394554742421636,-0.38101792410713925,0.29787122753418538,-0.16623443765803767,0.47067895440857249,-0.00935903087291944,0.31427471513933314,0.29004509894585528,-0.43676538287816624,-0.35543260497256063,0.618314997045832,0.43350462707252274,-0.35844498805097857,-0.02317148967932281,-0.085403761374167539,-0.18239909767244886,0.43797856126319318,-0.49557709582217457,-0.36371010121538266,-0.40881008641786165,0.24109681177333361,0.47713874676345691,-0.472193072710381,-0.0076409563480190129,-0.21917580024755298,-0.024180890891581833,0.067193728462870181,-0.02908971433310972,0.32649952680074684,-0.467164288012949,-0.16069343005509193,0.19313227677865721,-0.27661341025980068,0.19142610947961289,0.47938664760470956,0.15230184035135141,-0.45413677971724403,-0.014642382106740256,0.40826088972855074,0.369149536156387,0.43549066739285652,-0.16398565238728213,0.01375257599309737,-0.10158277113495394,-0.41025976215847992,-0.24960277654518315,0.11579132076989884,-0.30853361098925053,0.34198037506014756,-0.507023822495734,-0.11321347097269639,-0.28054444848556,0.21218636555230927,0.12936532808144044,-0.1777611097455149,0.33748568395881556,0.31830872485226464,0.51668334574124641,0.27601714129314525,0.18231760285366219,0.43620474206944115,-0.23482774430105322,0.40516804738616241,-0.47888082518704478,0.27239191887754338,-0.33960455082262558,0.13081448810656426,0.08224810752667909,0.43147279602851779,0.49803297366325194,-0.17347682682199003,-0.17018152586996815,-0.21980064301645055,0.20752130988778472,-0.071831511224264982,-0.22439056888527015,-0.049469575208002645,0.37864077994376505,0.40644742280626078,-0.13117442090907028,0.044332068297418481,-0.062700238928916782,0.12541890082072058,0.41596514046944749,0.17555247244999031,0.22450868312991387,-0.24541383300034406,0.056421141249321481,-0.016782350742289284,-0.15634322673312326,0.26293958158071323,-0.11940003825491861,0.075529818317823461,-0.0872882276663681,-0.15699734247810154,0.23571921118808831,0.016702129750011688,-0.19223466739175954,0.23125279497271084,0.59989099871701967,0.17431791536081906,-0.41133496151918236,-0.2683280925329678,0.67613468929757947,0.33662165204627009,0.51666178383326944,-0.41563006812165015,0.55570820369010232,-0.028698765390762455,-0.43298795217607566,-0.32402949720552476,-0.42063437251932828,-0.42780667084415364,-0.021517898111921129,0.504781724277373,-0.30811036708495976,0.27566166947675358,-0.48702487624876606,-0.087416330216991175,-0.33025611178583325,-0.43472755047777845,-0.26019803894050075,-0.4364981113775393,0.2271827610745977,-0.16073284704467675,-0.32092505363762425,0.13040053224706408,-0.62576155615472218,0.0827469422893288,0.29126824431463122,0.35811445247630685,-0.57956717943523928,-0.24590902892755942,0.44258321506535664,0.28509918646751753,-0.15753161748793698,-0.32713583519513811,0.037086549188106117,-0.42410673005409433,0.093741061399754785,-0.06809841560999505,-0.30974657395458111,-0.38455723710805567,-0.21381787400996496,-0.39629736715190178,0.2471567606616136,-0.32305087107446728,-0.49588064459629533,-0.36649585587199884,0.4278578458821225,-0.45177484399112644,-0.23627899957389303,-0.76308199289569345,-0.0834688926555333,0.41225204067605153,-0.070006080824010747,-0.71004290774908041,-0.16456021787807143,0.20618832404553172,0.072494014280720109,-0.31830334051543119,-0.324426400131144,-0.0664416947945134,0.12645035343542796,-0.25534951071213946,-0.4047986847332592,0.22517434742393297,-0.29508757174368588,0.27840109097834592,0.18179047857157288,-0.47272912076198592,-0.23505078558636694,0.528258072312591,0.14509019200609863,-0.092047496170691245,0.18290842465704543,-0.35524761617931822,0.35634060771606174,-0.11765068898745502,-0.1621188819546569,0.33370791929643823,0.055897014735708066,0.18314440558098083,-0.1255310962159692,0.13569318140471284,-0.13112947197993888,-0.568816556660039,0.35026572448755267,0.39071257726726671,-0.254697547937656,-0.24443560118457508,0.011842563745586718,0.31047364731508192,-0.14369406530925374,-0.24469046971952838,-0.20063291764425831,-0.061775412632138954,-0.1259217728192589,-0.54678179053579634,0.2734242102173845,-0.4555857276595342,0.31803834103286355,0.019097767559134823,0.16351913162413295,0.43152651825298832,0.63994376004992881,-0.0409983469461528,0.1003158398678055,0.61416847284774012,-0.27319797232636689,0.0759764761986169,-0.40387782897854108,0.49918461386439245,-0.12486643358771572,0.25431697440007439,0.14013408370709865,-0.047187147965596893,0.5565740593466828,-0.411660897580277,0.28027176240302692,-0.50654470564229293,0.39769968876442069,-0.28037595144700894,-0.30106512914570094,-0.41864048156447564,-0.25583056983811403,-0.3395217831122706,-0.25977099833946032,-0.58582519160789071,-0.46395859632785658,-0.29108434405684158,0.033187356167021766,0.37451142413913213,0.225672263976748,0.12173320356745448,0.59693119550558449,-0.37546538841548566,-0.29035094567866565,0.3034673332017423,0.310758823084053,0.52809719357326035,-0.059833550966959761,0.48198728153803444,0.59301085196369419,0.59766526668794584,-0.15766550757700093,0.18078315334005346,0.1842799998101376,0.52373245567013127,0.32892851078831126,0.26292824915467389,0.17167019344125589,-0.064082230166585222,-0.34768362611721454,0.18321788250375465,-0.47358036328365016,0.17767874361018984,-0.46810528419216141,-0.33690222186625873,0.0063910681474459276,0.37119939718201361,-0.25227351192714809,-0.22930389878180565,0.33683866417116815,0.37693606040981292,0.36767413620380363,-0.40398297509543857,-0.23568732802192544,0.38080016340327705,0.22060931723495655,0.0779601123815314,-0.35341045208396094,-0.0853169321755428,-0.054127591097195553,-0.53167315460525277,-0.15461603706653493,0.445824229661213,-0.20983683837243083,-0.13156033898678524,-0.51706058186640325,0.021076104816925921,0.057953558762446393,-0.1314506507660215,-0.30821286753022747,-0.35093232842794431,0.097520809720051463,0.0091854636570946942,0.33189606756788703,0.25939438125888881,-0.14744214379257584,-0.21524311737708862,0.543747742401312,-0.42186020354982307,-0.29131106888166497,0.498396720531264,0.29720107447792726,-0.25648418203250406,-0.21581653285764163,-0.21306363967921516,-0.18880048214892112,-0.51381290506077049,0.026904785336294496,0.40968312445783089,-0.15528065049868695,-0.1235183551871005,0.22783708965544366,-0.15479829487099284,-0.41016088065652273,-0.33375670627761123,-0.10568135074816681,-0.22319532833924183]},"Bias":{"Dimensions":[1,1024],"Values":[-0.022293885148675509,-0.020412191096637156,-0.02914976479877936,-0.0040900453654425144,-0.021744474965483578,-0.045318526948550542,-0.080527599740478767,-0.04826423634124604,-0.044863466800119267,-0.055349404065151861,-0.037400456916172282,-0.0048197051818617848,0.0083431947379049385,-0.034239726473740344,0.019982183878337577,0.0015084096256488848,0.053076351645557823,0.0065421528917101041,0.045609407231576721,-0.0018784510652031976,0.050090542658251039,0.0705584624027264,0.041974951245329455,0.035422808799767981,0.055256672509029783,-0.0008830034859777017,0.042965157419131421,0.0071375931762635266,-0.0018584187363285369,0.027528454786585142,-0.0090347203571845523,0.0176681904091005,0.0025089138372110034,0.00559126743545925,0.01394222102622918,-0.0053693302243568285,-0.00910068689598927,0.016965133079077141,-0.006449861068228752,-0.0038259518371708341,0.00486516583758672,0.049894736723454236,-0.015109937452337094,-0.034428044128963442,-0.008992197434748701,-0.011144770478843102,-0.044213483414916314,0.026271073194854645,0.0080180502518215641,0.025416222266865022,-0.0018357510477102022,0.0040427196862662775,-0.02227378769765315,0.0075512322771375375,-0.0476190830418031,-0.024570306580178097,-0.070775415478004491,0.031463687691798241,-0.0078305227985668944,-0.047403113133115474,-0.00785788155582675,0.035445236838599986,-0.06561093313494562,-0.048607608889362275,-0.0035103383565403164,-0.013228439401548366,-0.043658739351028659,-0.043676130555871474,-0.012959792441609028,-0.01122396799254371,0.03876825058046883,-0.021539895824099983,-0.02135376748397089,-0.048517495833472243,-0.11336663968061529,-0.10636731396593328,-0.0038473025365592041,-0.072733651246066844,0.05702372376911656,-0.020999480377551588,0.062989817896557179,0.083128862313614341,0.067038426602662654,0.0028941971897756815,-0.056981267043647019,-0.031015791842323372,-0.0083032540169147469,0.078003801547083515,0.0203244440568921,-0.018080099650797037,0.11976072171955189,0.076819223275621018,-0.0710134703209946,-0.045400158302682396,-0.035109444912432272,-0.0045546517694044142,0.0055204162373922129,-0.03783977998501005,-0.0080165511197376072,-0.025921396134031629,-0.0775166595554839,-0.053891062548732577,0.0093210789474581016,0.064691338418588179,0.025807172076279587,-0.0361453596986062,-0.095138809838692356,-0.124532700835021,-0.016221911231057665,0.018370862506261479,0.016258113997308452,0.083337846264639234,0.017798373913187251,0.031002460321653297,0.033254845026355319,0.040939156896669104,0.028179868654321625,0.049743425320135863,0.032823001162681664,0.022192641903075593,-0.061827502331072821,-0.068176052958338243,0.079033435075693076,0.039226827925048585,-0.00068178433296424814,0.055527796060366973,0.059106438604456253,0.024604267567018129,-0.10346064661417986,0.038189052240545494,0.056372137865906558,0.0052010436645987066,-0.065828048577749654,-0.024545187403520873,-0.0784005046245386,-0.048485302550620883,-0.024040978121345914,0.037848503017950424,0.084557132958069853,0.055650841950933443,0.0343886357367887,-0.0071159479164044585,-0.0326277926005535,-0.021508515680407004,0.029870306740696215,0.028741671877912642,0.0041659560498430752,-0.012162898692828026,0.013963738274113664,-0.010824107695404969,-0.0073282870197089256,0.024436143891502813,0.0368765744466566,0.0488472199873165,-0.016015995392940286,-0.045383080764605045,-0.0072025831267636294,-0.017080658546507442,-0.021884462874122473,0.016045250795145412,0.018511328324748787,0.029683258737532123,0.032380870105568747,-0.0038985812505401307,-0.028191721711021911,-0.0046662885239433039,-0.057487004272808256,-0.046595574357068785,0.11381633263338631,0.047040582149667172,0.0020061406524612213,0.0075323550668408229,-0.0011530881401705128,-0.0016632234711737178,-0.036470985567962154,-0.055050755306656422,0.048313866001465242,0.038419671090869384,0.045471900832995182,0.058285549239689149,-0.028763971323487666,-0.013038361220364938,-0.0430914180569441,-0.029850934781467612,0.028543241064073171,0.037400407757070764,0.040708223703702022,0.0965634990129529,-0.042615282987397973,-0.0051467333569154752,-0.034748226691387191,-0.054149418558264148,0.12726227710939889,0.072350826768323967,0.053415854996774335,0.048495238843285979,0.087572116114604581,0.0920579376026827,0.12445596336800421,0.040487053459296526,0.065683265387641729,0.021512677397653019,0.026788624069412192,0.025355182470496205,0.062623050356536467,-0.018174190135060712,0.084641910602027359,0.051343395963749906,0.12439353053350929,0.0755779766941693,0.050035412310897642,0.16883474709591809,-0.015418251427697869,-0.0018352306298885868,-0.0069952628017999618,-0.0012631806925586353,0.098817066796239333,0.062910913499017312,0.081043621648647118,0.09019312692949924,-0.036071920538736812,-0.053271340628374922,-0.012596588944720093,-0.0020083568336468744,0.021477649539930657,-0.023912248388463873,0.052935426127025204,-0.035275822288469177,-0.038367320335576459,-0.0058770859716867343,0.026411577425827577,0.062086337127797674,-0.040694628074353395,0.028055825238049951,-0.00567121811098266,-0.0073323506623389524,0.011053212567816962,0.01076536759109444,0.027452719393011041,0.038447482458761784,0.095472289888746092,0.060846327878957107,0.013214871396801288,-0.073680496964925082,-0.056416837357975896,-0.065859654711877533,-0.073023839108766919,-0.0095378453212892258,0.012486064413481659,0.045220398742039009,-0.032115217964004114,-0.067427857391506,-0.058675622370284231,-0.041034003906586812,-0.058999878134448812,0.0077904986881284126,-0.054731942759077855,-0.0032969761247473193,0.045724579689840984,0.10592548421382718,0.012459101136991939,0.014429144469301162,-0.010743290492954791,-0.063734144819347652,-0.015320693470743651,0.0023393770600216514,0.00714967772978799,0.097471493452685451,-0.0057726245976419278,-0.048611855585277662,-0.031786862961738077,-0.0053237875970291162,0.0042104166547991531,0.040276842675349561,-0.007797251760205,-0.0835604645065092,0.037433159262153036,-0.0022964882468433398,-0.053306336066749345,-0.012632086758629244,0.078859929168129228,0.095408144414908816,0.024435147769569066,0.059404831918616667,0.041046953433470805,-0.017907666546714836,-0.022118550191831784,-0.0504013556008359,0.076219474131959022,0.015215964781741639,0.013712431487610984,-0.0082745513077367647,